-0,1
0,3
0,2
0,1
-0,1
0,3
0
0,3
0,2
-0,3
0,2
-0,3
-0,1
-0,1
-0,2
-0,2
-0,3
0
0
-0,2
-0,3
0
-0,2
0,1
-0,2
-0,1
0,1
0,3
-0,2
0,3
0,3
-0,3
0,1
-0,2
-0,3
-0,1
0,3
0,3
-1,6
-0,6
-0,30000000000000004
1,1
-1,9
2,6999999999999997
2,8
3,7999999999999994
-0,2
0,2
0,2
0
-0,2
-0,3
0,2
-0,3
-0,2
0,2
0,1
-0,3
-0,1
0,3
-0,1
-2,6999999999999997
-2,9999999999999996
-3,6999999999999997
-6,200000000000001
-6,600000000000001
-12,100000000000007
-12,700000000000006
-14,600000000000009
-10,100000000000005
-6,500000000000002
-13,400000000000007
-4,5
-6,200000000000001
-17,6
-18,200000000000003
-13,300000000000008
-7,400000000000002
-6,200000000000001
0
-0,2
0,3
-0,3
0,1
0,2
0,2
-0,1
-1,1
-2,3
-3,6999999999999997
-3,8999999999999995
-9,000000000000004
-6,300000000000002
-1,9000000000000004
-0,9000000000000002
-13,500000000000007
-10,300000000000004
1,7000000000000002
-2,1999999999999997
6,600000000000002
-7,700000000000003
-4,299999999999999
-15,600000000000007
-11,300000000000006
8,900000000000004
-6,700000000000001
-8,200000000000003
2,4
-6,800000000000002
-0,3
0,3
-0,1
0,2
0,2
0,1
-1,2000000000000002
-1,6
-4,3
-0,5999999999999999
-9,600000000000003
-7,700000000000003
-1,1000000000000005
-2,7
-3,3
-3,3999999999999995
-1,2000000000000002
-5,6
-3,4000000000000004
-4,6
1,9000000000000004
1,7000000000000002
2,6
5,2
-2,799999999999999
2,1
0,20000000000000018
-0,9000000000000002
-5
-0,8
0,2
0,1
0,2
-0,2
-1,9
-6,900000000000002
0,6999999999999998
-0,7000000000000001
-10,200000000000005
-1,1
-8,800000000000002
8,900000000000004
-7,900000000000002
3,9999999999999987
8,700000000000003
-0,4999999999999998
2,9
-1,1000000000000005
6,500000000000002
1,3000000000000003
3,6999999999999997
-5,199999999999999
-8,100000000000003
2,5999999999999996
0,1000000000000002
-9,700000000000005
-11,100000000000005
-4,6
-1,4
0,1
0
-1,5
-1
-3,9999999999999996
-1,1102230246251565E-16
-3,6999999999999997
-1,1000000000000005
-15,200000000000006
-5,700000000000001
-6,4
2,5999999999999996
-10,000000000000004
8,200000000000003
-8,600000000000003
3,3999999999999995
0,5999999999999999
0,9000000000000002
4,199999999999999
-10,600000000000005
4,6
-6,4
12,600000000000007
8,100000000000003
-16,800000000000004
-20,89999999999999
-12,500000000000007
-1,1
0
-2,3
-0,6000000000000001
-2,1999999999999997
-7,600000000000001
2,2
3,3
-1,9000000000000004
4,7
8,300000000000002
1,2000000000000002
-2,9
-2
0,20000000000000084
5,800000000000001
-0,30000000000000027
1,7000000000000002
1,5000000000000004
-1,0000000000000004
3,3
-1,0999999999999999
-0,7999999999999999
-3,6999999999999997
-8,600000000000003
-7,3000000000000025
-17,200000000000003
-10,700000000000005
0,6000000000000001
3,3999999999999995
0
1,7000000000000002
2,4
-8,200000000000003
-13,000000000000007
-0,2999999999999998
-8,400000000000002
-3,3999999999999995
-2,5999999999999996
2,3000000000000003
-3,099999999999999
-5,000000000000001
-0,6999999999999998
5,1000000000000005
-5,300000000000001
7,700000000000003
7,8000000000000025
6,600000000000001
2,799999999999999
-2,5999999999999996
2,9
1,3000000000000003
-1,1000000000000005
-5,4
-13,900000000000007
-13,300000000000008
-0,7
0,1
-0,1
6,600000000000001
2,6999999999999997
-0,19999999999999984
-6,600000000000001
3,5
7,100000000000001
-0,19999999999999984
-2,1
-4,199999999999999
1,0000000000000009
5,700000000000001
-1,1000000000000003
-0,9000000000000002
9,800000000000004
5,6
1,6
-2,2000000000000006
5,700000000000001
3,8000000000000003
1,3000000000000003
2,9999999999999996
-1,5000000000000004
0,6000000000000002
-22,799999999999983
-19,299999999999997
-0,6000000000000001
0,2
-0,3
2,9999999999999996
2,4
-9,400000000000004
-1,9
5
-0,09999999999999976
-2,1
-3,3
-3,3
3,3
-8,100000000000003
5,5
-4,699999999999999
-4,3
-0,5000000000000002
0,8999999999999998
7,400000000000002
3,3
3,3999999999999995
-0,9000000000000002
7,3000000000000025
13,900000000000007
-10,500000000000005
-14,500000000000009
-19,699999999999996
0,1
-0,2
1,4
-2,1999999999999997
-5,4
-17,800000000000004
-2,1999999999999997
-1,9000000000000004
-2,1999999999999997
-2,1999999999999997
0,3000000000000005
-3,6999999999999997
-5,1000000000000005
1,5
-1,7000000000000002
-2,1
-11,800000000000006
2,9
-1,7999999999999998
-0,7000000000000005
6,200000000000001
1,1000000000000005
7,3000000000000025
0,5
2,1
5,800000000000001
-14,90000000000001
-12,500000000000007
0
0,3
1,5
-2
-2,9
-7,900000000000002
2,9
-2,1999999999999997
6,600000000000001
-1,5
3,3999999999999995
-1,8000000000000007
5
-8,200000000000003
2,7
-4,9
-3,499999999999999
-9,900000000000004
-7,100000000000002
5,700000000000001
2,3000000000000003
3,5
-2,9
2,1999999999999997
1,7000000000000002
2,1999999999999997
-1,1
-4,1
-1,6
0,1
1,3
0,30000000000000004
-0,5000000000000002
0,20000000000000018
7,200000000000001
7,000000000000002
-0,8999999999999998
3,7999999999999994
4,5
-2
-0,20000000000000062
-7,900000000000002
0,5000000000000002
-16,20000000000001
-21,39999999999999
-5,199999999999999
-8,400000000000002
-4,799999999999999
-7,600000000000001
5
10,000000000000004
-4,8
6,100000000000001
2,1
-0,7999999999999999
-6,400000000000001
-1,9
0,1
-0,1
-0,7
-8,700000000000003
-3,7999999999999994
1,7999999999999998
9,600000000000003
4,3
5,9
0,5999999999999994
1,1000000000000005
4,5
-5,1
3,5999999999999988
-17,800000000000004
-5,1
-4,699999999999999
-0,1000000000000002
-0,19999999999999918
-0,5000000000000002
-0,19999999999999984
-1,3000000000000003
10,100000000000005
5,300000000000001
3,5999999999999996
-6,200000000000001
-5,4
-1,7999999999999998
0,1
0,2
-0,2
-7,400000000000002
-2,1
-7,000000000000002
0,9999999999999999
8,300000000000002
5,199999999999999
3,5999999999999996
-3,3
5,9
-7,900000000000002
-7,400000000000002
-22,799999999999983
-6,700000000000001
-15,500000000000007
-1,3000000000000003
-1,3
1,0000000000000009
-6,300000000000001
-0,1000000000000002
-3,1
4,6
-9,800000000000004
-0,30000000000000004
-4,199999999999999
-0,2
0,2
0
-1,1
-8,300000000000002
11,200000000000005
9,500000000000004
0,19999999999999984
1,6
-1,1
7,3000000000000025
-4,3
10,600000000000005
5,4
-22,799999999999983
-17,500000000000004
4,1
-0,5
-4,5
-9,700000000000005
-2,4
9,500000000000004
-1,3000000000000003
-2,4
-3,9
5,500000000000001
-6,800000000000001
-10,700000000000005
4,3
0,1
0,3
-1,1
-11,300000000000006
5,6
-3,5999999999999996
1,2000000000000002
0,5000000000000002
0,9999999999999999
6,700000000000001
-2
-5,300000000000001
1,1000000000000005
-24,29999999999998
-9,500000000000004
-1,2999999999999998
-5,800000000000001
-0,1999999999999994
-4,799999999999999
-3,7999999999999994
2,9999999999999996
3,899999999999999
-8,900000000000004
6,700000000000001
3,1
-10,600000000000005
-4,5
4,7
0,3
-0,3
-1,9
-23,299999999999983
-8,600000000000003
-2,9
-4,2
-1,4000000000000008
5,300000000000001
2,7
13,400000000000007
-2,6000000000000005
-2,5
-9,100000000000003
-4,9
-9,300000000000004
-1,7999999999999998
9,100000000000003
6,100000000000001
-4,9
-5,300000000000001
-0,3999999999999999
7,900000000000002
-3,7999999999999994
0,7000000000000001
-0,9000000000000002
-1,2000000000000002
-1
-0,3
2,9
-0,5
-9,000000000000004
2,1
-8,700000000000003
5,300000000000001
-1,4000000000000004
-0,9000000000000002
0,7999999999999999
5,199999999999999
4,3
3,8000000000000003
-4,5
-5,300000000000001
-4,6
-2,799999999999999
0,9999999999999994
-4,199999999999999
4,2
-9,500000000000004
3,9
-5
2,3
-1,7999999999999998
-15,100000000000009
-1,5
-0,9
0,1
3,1999999999999997
-0,5
-8,100000000000003
-4,3999999999999995
4,5
-5,800000000000001
1,3000000000000003
5,6
5,500000000000001
4,1
10,600000000000005
2,399999999999999
-3,5999999999999988
-7,500000000000002
6,200000000000001
-3,9999999999999996
-3,1
-3,3999999999999995
-0,9000000000000002
0,9000000000000002
4,1
0,6000000000000004
-2,9999999999999996
-8,700000000000003
-9,000000000000004
0,20000000000000007
-0,3
0,3
0
1,7000000000000002
-2,3
-8,300000000000002
-0,6000000000000002
2,2000000000000006
-7,8000000000000025
-8,300000000000002
1,3999999999999995
3,9999999999999996
3,7999999999999994
-2,5999999999999996
9,000000000000004
-9,700000000000005
3,9999999999999996
2,1
-0,3000000000000005
-1,7999999999999998
-7,900000000000002
-1,7000000000000002
-5,300000000000001
1,1
-10,800000000000004
-8,100000000000003
-0,30000000000000004
4,9
-0,3
0,1
0,2
-3,3999999999999995
-5,800000000000001
1,1000000000000005
-2,7
-3,0000000000000004
5,5
-2,4999999999999996
4,1
-5,9
3,6999999999999997
8,300000000000002
6,200000000000001
-3,499999999999999
4,6
-2,3000000000000003
-4,1
-3,1
-13,300000000000008
5,800000000000002
-1,4
-5,500000000000001
-2,3000000000000003
-1,6
-0,30000000000000004
6,600000000000001
0,3
0
-0,3
-0,6000000000000001
-4,1
-11,400000000000006
1,4
6,100000000000001
-8,200000000000003
-8,700000000000003
-0,09999999999999953
0,7000000000000005
6,200000000000001
6,800000000000001
1,9000000000000004
3,6999999999999997
-3,5999999999999996
2,7
0,6000000000000004
1,8000000000000007
-10,000000000000004
-9,000000000000004
-10,200000000000005
-5,2
-7,700000000000003
-6,300000000000002
-0,30000000000000004
0,2
0
0,1
-0,2
-1,9
-1,7999999999999998
-8,100000000000003
-4,199999999999999
-7,200000000000002
-3,3
7,100000000000001
-2,5999999999999996
5,9
-14,200000000000008
1,7000000000000002
-5,700000000000001
7,700000000000003
-8,600000000000003
2,1
-3,6999999999999997
-5,700000000000001
-3,3
-21,09999999999999
-9,200000000000003
-8,300000000000002
-2,9
-1,4
-0,6000000000000001
0,2
0,2
0
-0,2
-0,2
0
-0,1
-8,700000000000003
-16,700000000000006
-23,299999999999983
-22,299999999999986
-14,400000000000006
-16,500000000000007
-22,099999999999987
-18,5
-24,99999999999998
-4,199999999999999
-20,599999999999994
-28,199999999999967
-25,899999999999974
-19,4
-20,89999999999999
-11,100000000000005
-13,900000000000007
-5
0,1
-0,1
0,2
-0,1
-0,2
-0,3
-0,1
0,1
-0,3
0
-0,2
-2,1999999999999997
-7,000000000000002
-13,600000000000007
-12,900000000000007
-17,400000000000006
-16,300000000000008
-9,800000000000004
-17,800000000000004
-17,400000000000006
-19,4
-19,999999999999993
-15,100000000000009
-13,100000000000007
-6,500000000000002
-9,300000000000004
-12,100000000000007
-4,3
-4,3999999999999995
0
-0,1
-0,3
0,3
-0,3
0,1
-0,3
0,1
-0,1
0,3
0,3
-0,2
0,2
0,2
0,2
-0,3
-1,1
-6,500000000000002
-7,100000000000002
-1,4
-1,3
-1
-1,1
-1,7000000000000002
-0,8
-4,9
-4,7
-4,5
0,2
-0,3
0,2
-0,3
0,2
-0,3
0,1
-0,2
0,1
0,2
-0,2
0,3
0,2
-0,2
0,1
0,2
-0,1
0,3
0
0,2
-0,2
0,3
-0,2
-0,1
-0,1
0,2
0,1
0,1
0,2
0,1
0
-0,3
0
0,2
0,2
-0,2
-0,2
0,3
0
-1,5
-1,7999999999999998
-1,5
-1,6
-0,2
0,2
0,2
0,10000000000000003
-2,5999999999999996
-5,900000000000001
-5,800000000000001
-0,3
0
0
-0,1
-0,3
0,2
0,2
-0,1
0,1
-0,3
0
-0,3
-0,1
0,3
-0,1
-0,3
0
-1,3
-2,1
-2,1
-3,4999999999999996
-8,400000000000002
-2
-2,2
10,900000000000006
-1,5
1,6
-4,3
-1,6
-6,700000000000002
0,5
-0,10000000000000003
-0,4
-0,10000000000000003
-0,30000000000000004
-0,10000000000000003
0
-0,3
0,2
-0,3
2,8
2,9999999999999996
-1
-1,6
-1
-3,3999999999999995
-5,4
-0,40000000000000013
-9,800000000000004
-15,900000000000007
-6,600000000000001
-3,9
1,9000000000000004
-7,8000000000000025
3,4000000000000004
-9,100000000000003
-0,7000000000000005
-9,400000000000004
-4,199999999999999
-0,9000000000000002
-3,3
-7,500000000000003
-5,4
-1,5
-0,1
0,1
0
0
2,6999999999999997
-0,4
1,7000000000000002
0,30000000000000004
-6,600000000000001
-4,199999999999999
-1,3000000000000003
1,5
3,5
-0,09999999999999998
-3,5
-7,200000000000001
3,9999999999999996
0,2999999999999998
-0,5999999999999996
-0,9000000000000002
-3,6999999999999997
-0,2999999999999998
-0,7999999999999999
-0,9999999999999999
2,1999999999999997
0,5
0,20000000000000018
-7,000000000000002
-0,1
-0,1
0,2
0,2
1,1
0,5000000000000001
5,800000000000001
3,9999999999999996
-0,30000000000000004
-5,1000000000000005
-11,800000000000006
-12,900000000000007
-15,100000000000007
-0,1000000000000002
-5
1,8000000000000007
-0,6000000000000004
1,5000000000000004
-0,09999999999999976
-2,9999999999999996
-0,20000000000000018
-2,9
-0,4999999999999998
-0,1000000000000002
5,900000000000001
1,9000000000000004
-5
-4,7
-1,5
0,2
0,2
-0,1
-5,900000000000001
-4,1
4,5
-2,9
-6,400000000000001
5,300000000000001
-4,5
10,200000000000005
1,4000000000000008
-11,500000000000005
-5
-1,7999999999999998
-3,5
-11,700000000000006
-10,600000000000005
-5,2
-1,8000000000000003
2,3000000000000003
-2,9
6,000000000000001
-8,300000000000002
-5,1000000000000005
-5,1000000000000005
-11,100000000000005
-1,7000000000000002
-0,1
-0,1
0,3
-4,1
-2,4
-2,1
-2,5
3,1
-4,1
-12,300000000000006
-4,6
-4,1
-4,1
7,700000000000003
-4,199999999999999
-2,1
1,3000000000000003
1,1
-5,1
-3,9999999999999987
-2,9999999999999996
-4,199999999999999
2
-3,3999999999999995
-1,3000000000000003
-13,300000000000008
-12,200000000000006
-2,5999999999999996
-0,9
0,1
-0,3
-1,7999999999999998
-0,3
1,7000000000000002
-1,5
2,5
-5,1000000000000005
-1,7999999999999998
-5,700000000000001
-1,9000000000000004
1,9000000000000004
-4,9
2,2000000000000006
-4,5
-3,1
-2,4
5,400000000000001
0,09999999999999976
-1,7999999999999998
0,9000000000000002
2,4
0,6000000000000004
-1,1102230246251565E-16
-11,600000000000005
-14,600000000000009
-1,5
-0,5
0,2
-4,7
-1,5
-4,3
-7,900000000000003
-6,800000000000002
-6,600000000000001
-3,1
-2,9
-2,9
-9,300000000000004
-1,2000000000000002
-6,300000000000001
-3,7999999999999994
4,299999999999999
0,5000000000000002
0,8000000000000002
-3,5
-4,9
-7,700000000000003
-2,7
-2,7
-0,19999999999999984
-10,300000000000004
-17,900000000000002
-13,100000000000007
-0,9999999999999999
-0,7
0,2
-4,199999999999999
-2,4
-5,300000000000001
-3,5999999999999996
-3,5
-6,500000000000002
9,400000000000004
-1,4000000000000008
-4,9
-1,3999999999999992
1,9000000000000004
-1,9
2,1
6,100000000000001
9,700000000000005
0,40000000000000013
-3,5
-2,7
1,1
-5
1,0000000000000002
8,900000000000004
-2,5999999999999996
-17,700000000000003
-6,200000000000001
2,5999999999999996
2,1
-0,1
0
1,6
-2,8
-0,09999999999999998
-3,3999999999999995
-10,600000000000005
-13,400000000000007
-2,1
-0,9
1,3000000000000003
-3,199999999999999
-7,8000000000000025
1,7000000000000002
9,100000000000003
-1,1102230246251565E-16
2,7
-2,1
-2,9
-3,9999999999999987
1,9
-9,500000000000004
5,2
-8,900000000000004
-10,700000000000005
-0,5000000000000002
1,4
-0,8000000000000002
0,1
0,2
-2
-2,1999999999999997
0,30000000000000004
4,6
0,2999999999999998
-5,4
-3,1999999999999997
-2,5
-6,900000000000002
-0,9000000000000002
3,899999999999999
3,9999999999999987
7,100000000000001
7,3000000000000025
-0,30000000000000004
2
0,49999999999999956
-5,900000000000001
-2,1999999999999997
-1,5
7,500000000000003
-1,7000000000000002
-5,700000000000001
-6,500000000000002
-7,8000000000000025
-3,7999999999999994
0,3
0,1
-1,7999999999999998
1,7000000000000002
-2,5
3,3999999999999995
2
4,1
11,500000000000005
-2,1
-13,500000000000007
-1,9000000000000004
-0,1999999999999994
1,7999999999999998
4,5
10,400000000000004
2,3000000000000003
-1,3
1,2000000000000002
-6
-2,7
-9,300000000000004
-5,300000000000001
-12,300000000000006
-11,800000000000006
-3,4999999999999996
-2,9999999999999996
-0,3
0,2
0,1
0,30000000000000004
0,8
8,900000000000004
-0,29999999999999993
-3,7999999999999994
-4,5
-1,1102230246251565E-16
-13,300000000000008
-7,100000000000001
-3,5
5,1000000000000005
-0,6000000000000009
2,9999999999999996
3,3
5,9
4,399999999999999
-0,40000000000000013
-15,900000000000007
-0,7000000000000005
2,3
3,9
-3,1999999999999997
-0,6
5,300000000000001
2
-0,3
0,1
0,2
0,6000000000000001
0,2
3,5999999999999996
-6,100000000000001
-5,800000000000001
5,300000000000001
-7,500000000000002
-4,3
-1,6
0,09999999999999953
-0,1000000000000002
0,19999999999999962
3,5
4,9
-0,9000000000000002
-4,5
-3,9999999999999987
-10,500000000000005
0,09999999999999998
7,000000000000003
3,6999999999999997
-1,9
-0,7000000000000001
4,5
2
0
0,2
0,2
0,5
-0,1
0,4
-0,9999999999999999
-5,800000000000001
-3,7999999999999994
1,7000000000000002
-0,19999999999999918
-3,9
0,5000000000000002
0,7000000000000001
3,1999999999999997
8,100000000000003
-3,3
-1,1000000000000005
4,3999999999999995
-20,599999999999994
-9,600000000000003
-11,700000000000006
-4,5
-2,6999999999999997
-3,3
2,9999999999999996
-3,4999999999999996
-0,5
-0,1
0,1
-0,3
0,1
0
-0,9
-4,5
-2,1
-7,000000000000002
-4,1
-4,299999999999999
-1,6
-5,9
-1,3000000000000003
4,6
10,700000000000005
-0,7000000000000001
-0,9000000000000002
-2,1
-2,1
9,700000000000005
-0,30000000000000004
-8,600000000000003
-1,1
-3,7999999999999994
0,6000000000000002
-8,700000000000003
-1,5
0,2
-0,2
0,2
-1
-0,9
-5,700000000000001
-15,40000000000001
-2,5999999999999996
0,7000000000000001
6,200000000000001
0,8000000000000002
-7,100000000000002
0,09999999999999953
-2,7
2,8
-1,2000000000000002
2,7
-7,700000000000003
-9,900000000000004
-3,9999999999999996
6,200000000000001
-2,5
4,1
4,7
-4,9
-7,100000000000002
-0,9999999999999999
0,6
4,8
0
-0,1
-1,7999999999999998
-2,9999999999999996
-6,500000000000002
-15,500000000000007
-4,699999999999999
-9,500000000000004
-0,5000000000000002
1,1102230246251565E-16
-5,4
0,5000000000000002
-0,1000000000000002
3,499999999999999
-0,6000000000000004
-3,3
-1,7999999999999998
1,0000000000000004
-2,4
-1,7999999999999994
5,300000000000001
-7,400000000000002
-7,000000000000002
-1,9
-6,000000000000001
13,000000000000007
1,9
4,8
0,2
0,2
-2,1
-1,9
3,3
2,5
13,600000000000007
4,3
-5
0,3000000000000005
1,5000000000000004
-1,2000000000000002
-0,4999999999999998
7,500000000000002
-5,300000000000001
-6,900000000000002
1,9000000000000004
-1,6
3,4000000000000004
9,700000000000005
0,20000000000000084
-2,3
-0,9999999999999999
-3,6999999999999997
-1,5
6,900000000000002
1,7999999999999998
0,1
-0,2
-0,3
-0,9
-3,1999999999999997
-4,6
2,8
0,9999999999999999
3,0000000000000004
-5
3,3
-3,9
2,3000000000000003
-0,5000000000000002
-3,3
-1,5
-0,5000000000000002
-0,8999999999999998
-0,7000000000000005
0,9999999999999999
-4,2
-6,200000000000002
13,000000000000007
0,20000000000000018
-9,500000000000004
-3,5999999999999996
6,200000000000001
3,3999999999999995
-0,2
0,1
0,3
-0,3
1,9
5,500000000000001
5,900000000000001
-3,8000000000000003
1,7000000000000002
3,5999999999999996
3,3999999999999995
-5
-0,9000000000000002
-8,300000000000002
0,2000000000000004
-1,5000000000000004
2,2
2
4,7
-0,30000000000000004
-2,1
5,2
6,300000000000001
-6,800000000000002
-8,700000000000003
5,4
0,29999999999999993
5
-0,1
-0,1
-0,2
0,3
-1,3000000000000003
-9,400000000000004
5,2
-1,2000000000000002
-4,1
-0,2999999999999998
-0,7000000000000001
-4,8
-0,7999999999999999
4,2
-4,1
3,8000000000000003
-1,5000000000000004
2,1999999999999997
-0,8999999999999996
15,40000000000001
-2,6999999999999997
0,1000000000000002
-7,500000000000002
-5,1000000000000005
-6,300000000000002
-1
3,7999999999999994
9,400000000000004
0,2
0
0
0
0,30000000000000004
-10,300000000000004
-0,09999999999999998
8,600000000000003
3,5
-8,900000000000004
-2,1
-1,4
0,4999999999999998
-9,400000000000004
-5,800000000000001
-2,9999999999999996
1,8000000000000007
-6
-6,700000000000002
-1,5
-2,8
1,3
-2,9
-0,5999999999999999
-0,5
-1
2,9999999999999996
3,6999999999999997
0,2
0,1
-0,1
-0,2
-0,10000000000000003
-4,6
-8,200000000000003
-6,900000000000002
-13,100000000000007
-10,700000000000005
-12,400000000000006
-18,4
-12,600000000000007
-7,500000000000002
-10,500000000000005
-6,600000000000001
-7,700000000000003
-12,600000000000007
-13,100000000000007
-11,400000000000006
-6,900000000000002
-6,100000000000001
-2,1999999999999997
-0,3
-0,3
-0,3
-0,2
0,1
-0,3
0,1
0,1
0,1
-0,6000000000000001
-1,4
-1,9
-2,9999999999999996
-3,5999999999999996
-3,3999999999999995
-4,199999999999999
-5,4
-10,000000000000004
-17,700000000000003
-21,09999999999999
-13,400000000000007
-10,100000000000005
-5,900000000000001
-2,5
-0,8
-3,4999999999999996
-3,7999999999999994
0,3
-0,2
-0,2
-0,3
0,1
-0,1
0,2
-0,1
-0,3
0,2
0,1
-0,2
0,2
0,3
-0,1
0,3
-0,2
-0,10000000000000003
-1,1
-0,30000000000000004
-1
-1,5
0
-0,1
-0,2
-0,3
0,2
0,3
-0,2
0
-0,2
0,2
0,3
0,2
0,1
-0,1
0
-0,3
-0,2
0,2
0,3
-0,3
0,1
0
-0,2
-0,1
-0,3
0,1
-0,1
0,3
-0,1
0,3
-0,1
-0,3
0
0,2
0,1
0,2
0,2
0,1
0
0,2
-0,2
0,1
0,1
0,2
-0,2
-0,3
-0,1
-0,7
-2,4
-5,4
-4,6
-4,5
-7,400000000000002
-10,300000000000004
-7,200000000000002
-3,4999999999999996
1,3000000000000003
-1,7000000000000002
-6,500000000000002
-4,6
-0,7000000000000001
-0,2
-0,3
-0,2
-0,1
0,3
-0,1
0,2
0,1
0,1
-0,2
0
-0,2
-0,3
-1,3
-2,3
-1,7000000000000002
-0,9000000000000002
-6,700000000000001
-15,500000000000007
-5,4
-5,300000000000001
-1,6
-6,200000000000001
-18,7
-6,700000000000001
4,7
-11,700000000000006
-12,100000000000007
-5,900000000000001
-1,4
-2,1
-3,3999999999999995
-0,09999999999999998
1,4
-0,3
0
-0,1
0
-0,1
0,1
-0,30000000000000004
-4,9
-5,300000000000001
1,5
6,700000000000001
-2,3000000000000003
4,1
-3,1
0,7000000000000005
-1,0000000000000004
-7,900000000000003
-4,9
-3,6999999999999997
0,2999999999999998
-2,5999999999999996
-0,3000000000000005
-4,9
-2,7
-2,5999999999999996
-10,700000000000005
-2,4
1,1
-0,3
0,3
-0,1
0,2
0,2
0,30000000000000004
-0,9000000000000002
2
-2,8
1,9000000000000004
3,3999999999999995
-0,9000000000000002
0,10000000000000042
-2,7
5,300000000000001
-0,6000000000000004
-2,1999999999999997
4,1
-0,20000000000000084
-0,2000000000000004
-3,6999999999999997
-3,1999999999999997
-3,5
0,7000000000000001
-5,4
-5,2
-6,300000000000002
0,7000000000000001
0,1
-0,2
-0,2
0,2
-0,2
1,7999999999999998
1,4000000000000004
-2,1
0,7999999999999999
-4,8
-6,900000000000002
3,6999999999999997
7,700000000000003
-0,4999999999999998
-1,5
5,4
-2,3000000000000003
2,4
3,499999999999999
-3,7999999999999994
4,9
5,300000000000001
-2,9
-2,6000000000000005
-2,5
2,2000000000000006
-11,200000000000005
-0,7000000000000001
-0,6000000000000001
-0,1
0,3
-0,1
7,500000000000003
7,3000000000000025
-6,100000000000001
-6,900000000000002
12,900000000000007
-10,300000000000004
6,600000000000001
-8,000000000000002
1,7999999999999998
-2,6999999999999993
-1,0000000000000009
2,9999999999999996
3,6999999999999997
0,9000000000000002
3,1999999999999997
2,5
1,0000000000000009
-2,9
3,8000000000000003
-0,09999999999999976
-5,5
-9,800000000000004
-5,800000000000001
3,9
0,19999999999999996
-0,3
0,2
0,3
2,5999999999999996
4,5
6,500000000000002
-2,3000000000000003
-8,300000000000002
8,300000000000002
-5,4
-0,7000000000000001
-1,3000000000000003
3,3999999999999995
1,6999999999999997
0,8999999999999998
-0,9999999999999999
-1,4000000000000008
-3,3
-0,5
-6,500000000000002
1,7000000000000002
-3,5999999999999988
-3,3999999999999995
3,3
-5,700000000000001
-14,200000000000008
0,7999999999999999
0,9
0
-0,2
0,5
0,2999999999999998
-2,1
-8,400000000000002
-2,3000000000000003
1,8000000000000007
-3,6999999999999997
6,600000000000001
1,3999999999999997
2,399999999999999
-0,7000000000000005
-3,899999999999999
0,9999999999999999
2,2999999999999994
-1,1999999999999993
2,5
-6,4
1,4000000000000008
3,8000000000000003
-3,3999999999999995
0,6999999999999996
-1,2
-3,3999999999999995
-17,500000000000004
-8,200000000000003
-0,4
-0,3
-0,2
-3,3
-5,800000000000001
-9,500000000000004
1,6
4,9
3,3
-9,500000000000004
-2,3000000000000003
-1,1000000000000005
2,1
3,1
3,0999999999999996
0,19999999999999918
-3,899999999999999
3,3999999999999995
-2,4999999999999996
1,7999999999999998
0,7000000000000001
0,6000000000000004
6,800000000000002
1,4000000000000008
0,5999999999999999
5,000000000000001
-12,200000000000006
-9,000000000000004
2,6999999999999997
0,3
0,1
-3,1999999999999997
-4,199999999999999
4,2
0,20000000000000018
-1,1
0,1000000000000002
9,100000000000003
-1,3000000000000003
-0,8999999999999998
3,6999999999999997
-0,7000000000000005
-3,499999999999999
-4,299999999999999
-3,7999999999999994
-4,299999999999999
-1,3000000000000003
-0,8999999999999998
-2,9999999999999996
1,1000000000000005
4,2
-1,3999999999999995
-1,3000000000000003
-4,9
-11,300000000000006
-6,200000000000001
2,4
-0,3
-0,3
0
-2,9
-3,5
4,9
5,4
-3,099999999999999
-13,500000000000005
-5,300000000000001
-11,700000000000005
-11,100000000000005
-8,600000000000003
-10,300000000000004
-7,500000000000002
-9,700000000000005
-2,6999999999999993
-5,9
-2,5999999999999996
2,5
1,5000000000000004
1,1
1,8000000000000007
-5,300000000000001
1,5000000000000004
-7,900000000000002
13,700000000000008
-3,4999999999999996
-4,9
0,1
0,2
-2,5
-18,799999999999997
-8,300000000000002
-9,900000000000004
-6,9
-12,600000000000007
-10,800000000000004
-0,399999999999999
-8,900000000000004
-7,3000000000000025
-5,199999999999999
-2,5999999999999996
-11,100000000000003
-5,700000000000001
-2,9999999999999996
-0,9000000000000002
-1,4999999999999996
0,9000000000000002
1,9000000000000004
1,9000000000000004
4,3
-15,900000000000007
-6,600000000000001
19,299999999999997
10,100000000000005
0,9999999999999999
-0,2
-0,3
-0,7000000000000001
-16,300000000000008
-17,100000000000005
-15,40000000000001
-22,399999999999984
5,6
-13,500000000000005
-3,899999999999999
-3,3999999999999995
-3,899999999999999
-4,199999999999999
-4,299999999999999
-2,8
-6,300000000000001
-2,9999999999999996
1,0000000000000009
-2,5
-1,0999999999999996
-3,899999999999999
-2,399999999999999
-6,4
-3,899999999999999
-0,5000000000000002
15,700000000000008
20,499999999999993
0,9999999999999999
0,3
-6,300000000000002
-2,5
3,4999999999999996
6,300000000000001
-5,5
-2,7
-16,10000000000001
4,6000000000000005
-1,4
-1,4000000000000008
4,6
0,19999999999999962
2,5999999999999996
5
-0,30000000000000027
-0,9999999999999999
0,09999999999999953
-2,5
2,9999999999999996
1,5000000000000004
-3,3999999999999995
-5,800000000000001
-4,1
9,800000000000004
-1,1
12,200000000000006
5,700000000000001
0,1
-1,9
-2,9
4,1
4,199999999999999
6,500000000000002
2
1,9000000000000004
1,5000000000000004
0,6000000000000006
2,9999999999999996
4,5
2
-3,7999999999999994
-0,6000000000000004
-6,700000000000001
1,2999999999999998
-3,5
-3,3
-6,100000000000001
-2,1999999999999997
-0,10000000000000042
-4,9
-2,9
-0,7000000000000005
-3,0000000000000004
23,99999999999998
2,5999999999999996
0,3
-2,9
-5,900000000000001
-2,1
-6,900000000000002
8,700000000000003
2,2
0,2000000000000004
2,7
1,7999999999999994
2,1
-1,1102230246251565E-16
0,9999999999999999
5,4
-0,3000000000000005
0,3999999999999999
5,400000000000001
-1,5
-2,3
-5,5
0,30000000000000027
-5,4
5,9
7,700000000000003
-3,5
18,200000000000003
17,200000000000003
1,7999999999999998
-0,1
-2,9
-4,5
-1,3000000000000003
10,600000000000005
2,9999999999999996
4,1
4,9
-1,5
2,7
1,1000000000000005
1,3000000000000003
-0,800000000000001
4,1
6,900000000000002
-0,20000000000000084
4,9
1,4
1,7000000000000002
0,7000000000000001
1,7000000000000002
-1,8000000000000007
-8,400000000000002
-2,3000000000000003
8,200000000000003
11,500000000000004
4,7
1,7000000000000002
0
-0,7
-7,100000000000002
-3,5999999999999996
-0,09999999999999953
6,4
1,0999999999999996
1,3000000000000003
-1,4000000000000008
2,4999999999999996
-2,5
3,3
4,6
5,300000000000001
1,0999999999999996
3,1
1,5000000000000004
-2,5
-1,1000000000000003
-0,19999999999999962
4,9
-0,7000000000000005
3,6999999999999997
0,3000000000000005
6,600000000000001
11,200000000000003
4,1
-4,3999999999999995
-0,1
-1,3
-10,200000000000005
-4,1
-5,300000000000001
2,2999999999999994
10,000000000000004
4,399999999999999
1,4000000000000008
3,7999999999999994
9,000000000000004
1,3000000000000003
6,600000000000001
2,1
0,9000000000000002
2,8
3,199999999999999
-0,7999999999999999
0,9999999999999999
-2,9
4,699999999999999
1,7000000000000002
6,500000000000002
-2,6000000000000005
11,000000000000005
-2,8
11,700000000000006
-2,9
-0,3
-2,1999999999999997
5,900000000000001
-2,1
3,899999999999999
-0,1000000000000002
-1,5
-0,09999999999999976
2,2999999999999994
5,199999999999999
-4,7
0,5999999999999999
-3,4000000000000004
-0,09999999999999953
7,3000000000000025
4,5
-0,19999999999999918
-0,6999999999999998
-3,8999999999999995
0,2999999999999996
1,9000000000000004
5,300000000000001
1,5999999999999992
7,3000000000000025
4,6
11,300000000000006
3,9999999999999996
-0,2
0,1
-1,1
-1,5
-1,7999999999999998
-1,7000000000000006
-1,1000000000000005
9,900000000000004
1,9999999999999991
2,799999999999999
3,1
3,7999999999999994
-0,9
-5,5
-5,500000000000001
-5,9
0,3000000000000005
-3,6999999999999997
-4,5
-1,0000000000000002
6
0,8999999999999998
-2,7
1,5000000000000004
5,4
12,400000000000006
-5
-7,200000000000002
0
-0,1
0,1
0,6000000000000002
-7,000000000000002
0,20000000000000084
6,300000000000001
4,6000000000000005
-3,0000000000000004
-5,300000000000001
-2,6000000000000005
0,8000000000000002
-2,6999999999999993
1,7000000000000002
-6,700000000000001
-2,1999999999999993
-5,6
-6,4
0,1000000000000002
-0,9000000000000002
3,899999999999999
1,1102230246251565E-16
4,799999999999999
10,200000000000005
13,800000000000008
0,20000000000000018
9,700000000000005
-3,4999999999999996
0
-0,2
0,3
5,500000000000001
-10,600000000000005
13,300000000000008
1,5000000000000004
-5,4
-0,19999999999999984
-0,19999999999999962
0,3000000000000005
0,40000000000000013
-2,5999999999999996
-6,500000000000002
-1,7999999999999994
-7,500000000000002
-2,5999999999999996
-1,2000000000000002
-5,800000000000001
6,4
2,9
-0,4999999999999998
2,3000000000000003
13,000000000000007
-5,700000000000001
-9,000000000000004
8,100000000000003
-4,5
0,3
0,3
-0,1
-1,6
-15,40000000000001
-9,400000000000004
-13,000000000000007
0,09999999999999976
-8,900000000000004
-3,5999999999999996
-1,2999999999999998
-8,100000000000003
-1,5000000000000004
0,2000000000000004
-5,700000000000001
-6,200000000000001
-2
3,3
-6,600000000000001
-2,5
8,200000000000003
4,2
-9,500000000000004
-0,9000000000000002
16,300000000000008
7,600000000000001
12,900000000000007
0,9
-0,2
-0,2
-0,1
0,3
-7,900000000000003
-10,100000000000005
-19,299999999999997
-13,700000000000008
-11,800000000000006
-23,99999999999998
-13,400000000000007
-11,300000000000006
-22,999999999999986
-11,100000000000005
-2,9999999999999996
-1,1000000000000005
-5
-2,8
-10,900000000000006
-2,5999999999999996
-6,300000000000001
-19,099999999999998
-8,600000000000003
-19
-12,400000000000006
-8,600000000000003
1
0,5
-0,1
-0,3
0
-0,2
0,1
0
-0,5
-3,4999999999999996
-3,4999999999999996
-3,6999999999999997
-4,199999999999999
-3,7999999999999994
-5,6000000000000005
-10,400000000000004
-8,000000000000002
-7,500000000000003
-12,200000000000006
-11,000000000000005
-7,500000000000003
-5,900000000000001
-3,1999999999999997
-2,1
-2,3
-4,3999999999999995
-0,3
-0,1
-0,3
0
-0,3
0
0
0,2
-0,2
-0,1
0
0,1
-0,3
-0,4
-0,5
-1,7999999999999998
-1,7999999999999998
-1,5
-0,7000000000000001
-0,2
-0,2
-0,6000000000000001
0,2
-0,3
-0,2
-0,2
-0,30000000000000004
-0,30000000000000004
-0,2
-0,2
0
0
0,3
0,3
-0,3
-0,2
0
0,3
-0,3
0
0,3
0,3
-0,3
-0,3
0,3
0,2
-0,3
0,2
-0,1
-0,1
-0,1
0
-0,2
-0,1
0,2
0,2
0,1
0,3
-0,1
0,3
0,3
0,2
0,1
0,3
0,2
-0,3
0,2
-0,3
-0,1
-0,2
0,1
-0,1
-0,3
-0,2
0,3
0,2
-0,2
0,1
-0,3
-0,1
-0,2
-0,2
-0,6000000000000001
-0,2
0,2
-0,3
-0,2
0,1
-0,2
-0,2
0
0,1
0
-0,2
0
-0,3
-0,2
-1,1
-5,4
-3,6999999999999997
-0,30000000000000004
-0,5
-5,300000000000001
-6,600000000000001
-3,9
-10,100000000000005
-7,700000000000003
-8,300000000000002
-9,700000000000005
0,7000000000000001
-1,9
-0,9
0,2
0,3
0,2
-0,2
0
0,3
-0,3
-1
-0,10000000000000003
-0,3
0,30000000000000004
-5,500000000000001
-2,7
-4,7
8,600000000000003
-9,300000000000004
9,700000000000005
3,0000000000000004
-3,5999999999999996
2,6000000000000005
3,5
-6,600000000000001
-2,1
10,200000000000005
-17,6
6,900000000000002
7,3000000000000025
-2,5
-9,500000000000004
-2,6999999999999997
-0,2
-0,2
0,1
0,1
0,2
-1,1
-0,4
10,700000000000005
3,1999999999999997
1,5000000000000004
7,900000000000002
6
-0,7000000000000005
7,500000000000002
2,4999999999999996
-0,19999999999999984
-1,8999999999999995
5,300000000000001
-3,5
-0,800000000000001
0,3999999999999999
-6,300000000000001
-1,3000000000000003
-2,9
-1,1000000000000005
-3,5999999999999988
-4,8
-3,9999999999999996
-3,4999999999999996
0
0,2
-0,2
-0,3
0,2
1,7999999999999998
12,500000000000007
8,000000000000002
-0,2999999999999998
2,5999999999999996
3,7999999999999994
3,199999999999999
2,3
5,4
5,300000000000001
9,900000000000004
-0,1000000000000002
2,1999999999999997
1,9000000000000004
-1,4
-4,1
1,5
-1,7000000000000002
-2,5999999999999996
-6,200000000000001
-15,900000000000007
-5,900000000000001
-4,199999999999999
-0,1
-0,3
-0,1
3,3
-1,7000000000000002
-4,3
-5,1000000000000005
0,5000000000000002
0,5000000000000011
-2,1
0,19999999999999962
0,9999999999999999
5,1
1,3999999999999992
8,500000000000004
1,6
1,5
2,1
-1,9000000000000004
-0,1000000000000002
1,4000000000000004
0,09999999999999998
-5,1
0,20000000000000018
-2,5999999999999996
-0,09999999999999953
1,1
-4,3
-0,1
0
0,3
4,9
1,3000000000000003
5,4
4,6
3,3
-1,4000000000000008
4,199999999999999
-2
2,9
-1,0000000000000009
7,600000000000001
0,9000000000000002
-2,3
-4,5
1,4
-1,7999999999999994
-0,40000000000000013
-0,5999999999999994
-6,100000000000001
-2,5
-0,9999999999999994
-7,200000000000001
-3,6999999999999997
-16,000000000000007
-8,200000000000003
-0,5
-0,3
0,3
-0,30000000000000004
-6,900000000000002
-3,3
-6,200000000000001
1,7000000000000002
2,7
-0,5999999999999999
1,6999999999999997
-1,200000000000001
-3,9
0,09999999999999998
-5,5
4,1
-0,3999999999999999
0,40000000000000013
1,3000000000000003
-2,5999999999999996
-2,900000000000001
0,1000000000000002
-0,2000000000000004
-2,2999999999999994
3,5999999999999988
-8,600000000000003
-28,999999999999964
-12,800000000000006
-0,30000000000000004
0,2
0
-3,8999999999999995
-10,200000000000005
-2,5
10,900000000000006
-2,5999999999999996
12,300000000000004
1,1000000000000005
-0,5999999999999996
-2,1
-4,1
-7,500000000000002
1,4000000000000008
-8,200000000000003
0,5000000000000002
1,0999999999999996
3,499999999999999
5
7,400000000000002
4,199999999999999
-3,4000000000000004
8,100000000000003
1,1
2,1999999999999997
-28,499999999999964
-10,100000000000005
-0,2
0,2
-0,2
-1,9
-1,5000000000000004
5,300000000000001
4,399999999999999
6,500000000000002
1,8000000000000007
-3,6999999999999997
-3,3999999999999995
-9,900000000000004
-8,500000000000004
-5,300000000000001
-3,6999999999999997
-1,2000000000000002
-2,1
-1,4000000000000004
2,799999999999999
1,7999999999999994
0,7000000000000001
5,199999999999999
1,9000000000000004
2,1
8,200000000000003
3,9
-15,000000000000009
-0,40000000000000013
-0,10000000000000003
0
-0,1
-4,3999999999999995
-9,300000000000004
1,9
1,9000000000000004
4,8
-12,600000000000007
-2,3000000000000003
-6,700000000000001
-5,900000000000001
-4,299999999999999
-7,200000000000001
1,8999999999999995
0,9000000000000002
2,9
-0,5000000000000007
4,299999999999999
3,7999999999999994
4,6
0,9999999999999994
4,1
-6
-4,5
-13,000000000000007
-9,200000000000003
3,0999999999999996
0,3
-0,3
0,2
-4,199999999999999
-7,700000000000003
12,100000000000007
2,1
-8,500000000000004
0,9000000000000002
-5
-6,700000000000001
-9,100000000000003
-7,500000000000002
1,7999999999999998
1,4
0,9000000000000002
4,199999999999999
3,499999999999999
3,3
5,500000000000001
-3,099999999999999
-3,6999999999999997
-5,9
-8,800000000000002
-14,300000000000006
-8,100000000000003
-1,1
4,6
0,2
0,2
-0,3
-3,3999999999999995
-6,500000000000002
2,9
-16,300000000000008
-4,699999999999999
1,0000000000000004
-7,3000000000000025
-1,3999999999999995
-0,2999999999999998
-0,9
6,500000000000002
3,3
-0,09999999999999976
10,100000000000005
-0,5999999999999999
2,6000000000000005
3,899999999999999
-1,7000000000000002
-1,9
-6,500000000000002
-0,39999999999999925
-10,400000000000002
-17,100000000000005
1,7000000000000002
-4,3999999999999995
-5,900000000000001
-5
-0,7
-0,09999999999999998
-1,3
-7,3000000000000025
-9,500000000000004
0,20000000000000084
-5,1
1,5
2,9
-6,900000000000002
-0,6000000000000004
5
0,9999999999999999
-2,2000000000000006
0,4999999999999998
-1,5999999999999992
2,4
3,5
-0,20000000000000062
-1,3999999999999995
0,2999999999999996
-1,3000000000000003
8,200000000000003
3,3
-1,7000000000000002
-13,000000000000007
-5,6000000000000005
-4,7
-0,5
1,4
2,3000000000000003
10,500000000000005
-8,300000000000002
2,1
-9,800000000000004
-0,19999999999999962
-2,5999999999999996
3,099999999999999
-5,1
-1,3000000000000003
0,09999999999999976
0,1999999999999994
0,5000000000000002
-1,7999999999999998
-3,7999999999999994
-3,8000000000000003
0,6000000000000002
0,09999999999999998
-2,1999999999999997
8,700000000000003
-6,700000000000001
7,8000000000000025
2,6000000000000005
-9,300000000000004
-4,1
-0,2
0,1
4,199999999999999
3,5999999999999996
17,100000000000005
3,3999999999999995
-3,5
1,6
-7,3000000000000025
2,8
0,10000000000000042
0,3999999999999999
0,6000000000000009
3,199999999999999
0,7000000000000005
-2,599999999999999
-0,7999999999999993
-3,6999999999999997
2,3000000000000003
4,1
0,19999999999999962
7,100000000000001
1,1000000000000003
9,500000000000004
0,6000000000000004
-8,800000000000002
-13,300000000000008
-5,4
-0,1
-0,2
4,199999999999999
7,500000000000002
6,700000000000001
-3,8000000000000003
-0,30000000000000004
-0,7000000000000005
-2,1
-4,799999999999999
-7,8000000000000025
-6,300000000000001
-1,0999999999999996
-7,400000000000002
-7,500000000000002
-9,700000000000005
-5,9
-0,6999999999999996
1,5
-0,30000000000000004
0,6999999999999994
-1,1000000000000005
0,10000000000000042
6,600000000000001
-5,700000000000001
-6,600000000000001
-24,699999999999978
-3,6999999999999997
0,2
0,2
0,2
7,500000000000003
19,099999999999998
0,9999999999999999
2,5
7,400000000000002
4,7
-2,3000000000000003
-3,3999999999999995
-6,100000000000001
-8,500000000000004
-5,700000000000001
-9,800000000000004
-8,900000000000002
3,0000000000000004
-1,4000000000000008
2
1,9000000000000004
9,800000000000004
1,2999999999999996
7,000000000000002
6
11,300000000000006
-5,1
-19,699999999999996
-1,4
-0,3
-0,1
-0,3
4,5
4,1
1,8999999999999995
4,299999999999999
-5
-3,7999999999999994
-0,09999999999999953
-2,5999999999999996
-5,700000000000001
-3,899999999999999
-6,900000000000002
-8,500000000000004
-5,9
1,6
1,5000000000000004
1,4000000000000008
2,3000000000000003
5
-0,20000000000000084
-3,899999999999999
2,4
-7,500000000000002
-9,900000000000004
-10,400000000000004
-3,8999999999999995
0,1
0,2
-0,30000000000000004
-0,6000000000000004
18,200000000000003
-4,1000000000000005
8,500000000000004
-2,7
-0,3999999999999999
3,6999999999999997
-5,700000000000001
-2
-0,3999999999999999
2,9
1,7000000000000006
4,7
-7,600000000000001
-3,3999999999999995
-1,7000000000000002
3,9
-0,6999999999999996
5,4
-4,5
-0,6999999999999996
1,5
-8,500000000000004
-11,500000000000005
-0,1000000000000002
-0,2
0
-0,4
5,900000000000001
-0,6000000000000004
9,800000000000004
-3,199999999999999
4,399999999999999
1,7999999999999998
-5,199999999999999
3,6999999999999997
1,8000000000000007
-0,9999999999999999
1,9
1,2000000000000002
-0,4999999999999998
2,1
1,3999999999999997
0,6999999999999996
3,200000000000001
-5,199999999999999
8,600000000000003
-0,09999999999999976
-3,5999999999999988
-1,4
-38,59999999999993
-6,800000000000002
1,1
0,2
-0,3
0,2
0,7000000000000001
-9,000000000000004
3,3
-2,2000000000000006
5,300000000000001
-1,9000000000000004
4,699999999999999
2,5999999999999996
-0,9000000000000002
-0,9999999999999999
-6,200000000000001
-0,19999999999999962
1,3000000000000007
2,5
0,6000000000000006
2,1
1,8000000000000007
-3,3999999999999995
-4,299999999999999
0,7999999999999993
-5
-3,9999999999999987
-20,39999999999999
-4,3999999999999995
0,5
0
-0,3
0,2
0,09999999999999998
6,600000000000001
8,500000000000004
4,9
3,3
4,5
-4,2
-2,8999999999999995
2,9
-0,5999999999999994
2,7
0,5999999999999994
0,6000000000000004
0,40000000000000013
-1,5000000000000004
1,1000000000000005
-7,8000000000000025
5,6
-0,5000000000000002
-0,1000000000000002
-10,800000000000004
-6,400000000000001
-9,000000000000004
0,09999999999999998
0,6000000000000001
0
-0,3
0,2
-3,3
17,400000000000006
-1,1
5,199999999999999
1,6
5,300000000000001
9,700000000000005
4,1
-4,299999999999999
1,7000000000000002
0,5000000000000002
2,7
-5,300000000000001
3,5
-2,6999999999999993
-1,2000000000000002
3,5
-10,600000000000005
-7,3000000000000025
-9,400000000000004
0,3999999999999999
-1,9
-1,7000000000000002
-0,7000000000000001
0,1
0,1
-0,1
-0,3
0,3
-8,000000000000002
2,3
-5,500000000000001
8,100000000000003
0,5000000000000002
-5,300000000000001
5,4
2,8
-0,09999999999999998
2,2000000000000006
1,7000000000000002
4,3
-3,6999999999999997
-0,09999999999999953
0,8999999999999998
-6,600000000000001
2
7,3000000000000025
-4,7
-11,300000000000006
-2,9999999999999996
-0,1
0
-0,2
0,2
-0,2
-0,1
0,3
-0,10000000000000003
-0,10000000000000003
0,30000000000000004
-1,7999999999999998
-6,100000000000001
-8,700000000000003
-12,800000000000006
-2,5999999999999996
-7,100000000000001
-11,000000000000005
-19,299999999999997
-13,700000000000006
-17,000000000000007
-4,3
-12,500000000000007
-12,000000000000005
-9,000000000000004
-5,300000000000001
0,09999999999999998
-0,30000000000000004
0,1
0,3
-0,3
0,1
-0,2
-0,2
0,2
-0,3
0,3
0
0,2
0,2
0,1
-0,5
-1,2000000000000002
-3,4999999999999996
-4,9
-3,6999999999999997
-3,3
-2,9999999999999996
-4,199999999999999
-4,5
-5,800000000000001
-4,6
-2,3
-1
-0,2
-0,3
0,3
-0,3
0,3
0,3
-0,3
0,1
-0,2
-0,3
0,2
-0,2
0,1
0,2
0,2
0
-0,1
0,1
0,3
0
0,2
0,2
0
-0,1
-0,3
0,2
0
-0,1
0,3
-0,1
-0,3
-0,1
0,3
-0,1
-0,3
0,2
-0,2
0,3
0
0,3
-3,8999999999999995
-7,100000000000002
-7,100000000000002
-4,5
-5,800000000000001
-6,300000000000002
-5
-5,1000000000000005
-0,9000000000000002
-1,7000000000000002
-7,500000000000003
-4,199999999999999
-1,7999999999999998
-1,7999999999999998
-1,9
-2,1
-1,9
-6,700000000000002
-4,9
-0,3
-0,1
0,2
0,2
0,3
-0,3
-0,1
-2,9
-7,000000000000002
-3,7999999999999994
-11,500000000000005
-22,999999999999986
-24,09999999999998
-16,300000000000008
-24,29999999999998
-31,699999999999953
-20,999999999999993
-13,400000000000007
-16,700000000000006
-10,700000000000005
-16,900000000000006
-5,500000000000001
-15,70000000000001
-12,400000000000006
-6,400000000000001
-9,000000000000004
-12,900000000000007
-6,700000000000002
-1
-1,3
0,1
-0,2
0,1
0,3
-0,1
-2,8
-2,5
-4,199999999999999
-12,300000000000006
-23,69999999999998
-20,099999999999994
-16,60000000000001
-6,700000000000001
-0,9999999999999999
-33,79999999999995
-20,699999999999992
-11,900000000000006
-6,700000000000001
-17,000000000000007
-17,000000000000007
-14,500000000000009
1,0000000000000004
-0,40000000000000013
-3,5999999999999996
-7,3000000000000025
-2,6999999999999997
-4,1
-2,1999999999999997
-1,4
0,2
-0,3
0,2
0
0,2
2,5999999999999996
3,0999999999999996
5,300000000000001
-7,600000000000002
-4,6
4,3999999999999995
-6,700000000000001
-8,400000000000002
14,800000000000006
-12,200000000000006
-4,6
0,6000000000000009
-6
5,4
-0,2999999999999998
0,40000000000000013
13,600000000000007
-2,5
3,3999999999999995
7,600000000000001
11,300000000000006
5,2
-0,2
-0,3
0,3
-0,1
-3,0999999999999996
5,700000000000001
2,5
-0,1000000000000002
-8,600000000000003
-1,5000000000000004
5,400000000000001
-0,6000000000000009
1,6999999999999997
-4,1
-8,400000000000002
-1,7999999999999998
5,5
2,2000000000000006
6,600000000000001
-3,3
-0,20000000000000018
-2,3000000000000003
2,7
-0,20000000000000084
4,8
6,600000000000001
6,100000000000001
-11,400000000000006
-8,600000000000003
-5
0,3
-0,3
-3,0999999999999996
-4,3
-11,000000000000005
5,6
2,4
-2,5
-1,7000000000000002
1,5000000000000004
-2,9
1,1102230246251565E-16
-6,4
-7,000000000000002
-14,500000000000007
-11,000000000000005
-9,600000000000003
-0,6999999999999994
-2,100000000000001
-4,5
4,799999999999999
4,5
2,9999999999999996
13,800000000000008
3,7999999999999994
-1,5000000000000004
-10,600000000000005
-5
0,3
-0,9
-2,5
5,900000000000001
6,500000000000002
8,500000000000004
-1,5
-1,0000000000000009
-0,7000000000000001
6,300000000000001
-6,200000000000001
6,300000000000001
-2,2999999999999994
-10,100000000000005
-2,5999999999999996
-8,500000000000004
-8,4
-3,3999999999999995
-1,7999999999999994
-0,7000000000000005
4,7
-0,20000000000000084
9,700000000000005
-0,8999999999999998
2,1999999999999997
-4,9
4,5
-2,5
0,2
-6,000000000000001
1,9
-7,000000000000002
4,1
-1,3000000000000003
7,600000000000001
-4,3999999999999995
-6,900000000000002
-3,3
-7,000000000000002
-4,799999999999999
-4,199999999999999
-5,1
-3,499999999999999
-9,200000000000003
-3,3
0,4999999999999998
-0,7000000000000005
3,3
-5,4
4,7
0,1000000000000002
-4,8
-0,09999999999999998
-4,3
0,6000000000000004
-2,5999999999999996
-0,2
-7,500000000000003
-0,7000000000000001
-18,200000000000003
-6,000000000000001
-3,5
-1,2000000000000002
1,3000000000000003
-2,3
0,9000000000000002
-5,800000000000001
5,1
1,1102230246251565E-16
-5,300000000000001
-6,800000000000001
-5,1
-6,500000000000002
0,2000000000000004
4,7
1,4000000000000008
3,6999999999999997
2,2000000000000006
-2,1
2,2000000000000006
-4,6
0,9000000000000002
-14,800000000000008
-6,100000000000001
0,2
-2,5
-7,3000000000000025
-4,9
8,500000000000004
-2,9999999999999996
-2,9
-0,5000000000000004
-3,3
-2,2999999999999994
-5,900000000000001
2,4
-1,7999999999999998
-6,700000000000001
-4,799999999999999
-2,9
1,7999999999999998
-5,300000000000001
-0,7000000000000005
-2,799999999999999
-1,3000000000000003
-7,900000000000002
-4,199999999999999
-3,9
-2,5999999999999996
-4,3
-1,5
-0,7
-0,3
-0,10000000000000003
-10,400000000000004
-3,6999999999999997
-2,1999999999999997
-5,5
-2,9999999999999996
-4,3
1,9000000000000004
-1,0000000000000004
3,3999999999999995
-1,4000000000000004
0,9000000000000002
-4,299999999999999
-10,200000000000005
-4,6
4,199999999999999
0,8000000000000002
0,09999999999999998
-7,100000000000001
-2,3000000000000003
-1,9000000000000004
-4,3
-6,500000000000002
-16,10000000000001
-10,700000000000005
-3,9999999999999996
-5,1000000000000005
-0,2
-2,9999999999999996
-11,000000000000005
-8,300000000000002
-14,600000000000009
-0,20000000000000062
-0,9
-1,2000000000000002
2,9
0,5000000000000002
-0,10000000000000042
2,9
4,6
-6,100000000000001
-7,100000000000001
1,2000000000000002
9,300000000000004
7,400000000000002
-6,4
-0,5999999999999992
3,1
-0,8999999999999996
-0,49999999999999956
-6,200000000000001
-13,700000000000008
-0,5000000000000002
-3,9999999999999996
-7,700000000000003
0,2
-2,6999999999999997
-5,300000000000001
-10,300000000000004
-0,3000000000000005
8,100000000000003
4,699999999999999
-0,1999999999999994
0,1000000000000002
-4,6000000000000005
9,300000000000004
8,600000000000003
5,800000000000001
-2,1999999999999997
-8,700000000000003
-2,7
3,7999999999999994
-0,2999999999999998
1,4
-1,1
-7,100000000000001
2,399999999999999
2,1999999999999997
-5,400000000000001
-9,900000000000004
-9,100000000000003
-18,6
-2,9
0,2
-0,10000000000000003
-5
3,7999999999999994
3,8000000000000003
0,2999999999999998
0,09999999999999953
2,9
-0,6000000000000006
-0,20000000000000018
0,2999999999999996
6,100000000000001
3,6999999999999997
-0,5000000000000002
-2,9
0,2999999999999998
8,100000000000003
2,9
0,1000000000000002
0,10000000000000109
2,5999999999999996
-4,6000000000000005
6,100000000000001
5,4
-3,1
-4,2
-11,400000000000006
-2,9
0,2
-0,2
2,4
3,6999999999999997
0,20000000000000062
6,500000000000002
5,1
4,1
2,5
3,899999999999999
3,5
0,19999999999999984
1,4
-3,5
9,100000000000003
-2,3000000000000003
9,700000000000005
7,000000000000002
0,5000000000000002
6,100000000000001
6,600000000000001
0,7000000000000001
-1,6
-4,1
0,5000000000000002
-7,400000000000002
-13,900000000000007
3,1999999999999997
0,3
-0,1
1,3
-15,900000000000007
1,3000000000000003
-4,5
2,9999999999999996
8,500000000000004
2,1
2,6999999999999993
-7,8000000000000025
4,5
-2,4
1,9000000000000004
2,1999999999999997
7,000000000000002
0,5000000000000002
-0,9999999999999997
-0,9
-0,3999999999999999
0,3000000000000005
8,500000000000004
-1,8000000000000007
-6,900000000000002
2,1999999999999997
-28,199999999999967
-10,700000000000005
-1,7999999999999998
0,1
0
-0,1000000000000002
-12,400000000000006
-4,9
1,1
2,1
-1,5
-1,4000000000000008
-0,4999999999999998
-3,4000000000000004
-0,1000000000000002
3,9999999999999996
1,5
1,5000000000000004
8,600000000000003
3,499999999999999
4,299999999999999
4,1
0,5999999999999999
2,1
-1,5000000000000004
-1,7000000000000002
9,900000000000004
1,5
-9,600000000000003
-4,199999999999999
-1,7000000000000002
-4,199999999999999
0,1
-3,7999999999999994
-7,3000000000000025
-7,400000000000002
-3,6999999999999997
0,30000000000000004
-1,9000000000000004
4,299999999999999
-3,6999999999999997
-4,299999999999999
0,8999999999999998
-1,4000000000000008
4,9
6,900000000000002
-3,0999999999999996
-4,399999999999999
-1,5
0,9000000000000002
-8,800000000000002
-10,700000000000005
6,700000000000001
-2,8
-4,1
-6,300000000000001
-21,29999999999999
8,600000000000003
3,4999999999999996
-0,2
-0,3
-4,3
-6,500000000000002
3,0000000000000004
0,2000000000000004
-9,200000000000003
-1,5000000000000004
-4,6
-5,800000000000001
-4,699999999999999
0,10000000000000109
-3,5999999999999988
-0,5999999999999996
0,9999999999999999
-3,5
-6,600000000000001
-10,000000000000004
-1,1
-0,8999999999999998
-3,099999999999999
2,1
-7,700000000000003
-7,700000000000003
-12,500000000000007
-7,400000000000002
2,5999999999999996
-0,2
-0,2
0,2
-1,3000000000000003
1,9
-13,500000000000007
5,5
-4,6
-16,900000000000006
1,7000000000000002
-16,60000000000001
-5,700000000000001
-5,5
-5,199999999999999
-0,9000000000000002
-0,49999999999999956
2,9
-3,6999999999999997
3,6999999999999997
-3,6999999999999997
-5,700000000000001
-7,900000000000002
-5,800000000000001
-2,3000000000000003
-6,700000000000001
-2,1999999999999997
-0,5999999999999999
-0,1
0,1
-0,3
0,2
4,1
3,8999999999999995
-11,700000000000006
-15,30000000000001
-19,699999999999996
-0,9
-0,9
-6,200000000000001
-2,5
-4,199999999999999
-6,800000000000001
-4,5
-0,5000000000000002
-2,4
2,799999999999999
-1,5999999999999992
-0,1000000000000002
5
4,1
-7,400000000000002
-13,200000000000006
0,20000000000000018
3,4000000000000004
-4,5
0,1
0
-0,3
-0,1
-0,2
-4,5
-10,700000000000005
-2,5999999999999996
-4,6
-2,9
-2,599999999999999
-10,100000000000005
0,9000000000000002
-2,9999999999999996
-3,9
-8,100000000000003
-2,9999999999999996
-4,799999999999999
-2,5999999999999996
2,1999999999999997
0,7000000000000001
-0,49999999999999956
1,4
7,8000000000000025
14,500000000000007
-4,2
-3,3
-7,500000000000003
-0,3
0,3
-0,2
0,2
-0,2
-9,100000000000003
-13,400000000000007
-6,800000000000002
-0,09999999999999998
-14,800000000000006
-4,7
-3,6999999999999997
0,09999999999999953
-7,3000000000000025
0,800000000000001
6,500000000000002
-6,200000000000001
1,1102230246251565E-16
2,8
5,800000000000001
-5,5
2,1999999999999997
-5,300000000000001
-2,4999999999999996
-2,8
-8,700000000000003
-4,9
0,20000000000000007
0,1
0,3
-0,2
-0,3
0
-0,8
-2,3
7,100000000000002
-3,9
2
10,600000000000005
0,09999999999999998
-2
6,100000000000001
-6,700000000000001
0,19999999999999918
1,9000000000000004
0,40000000000000013
1,7000000000000002
1,3000000000000003
1,1000000000000005
1,4000000000000008
2,1
7,200000000000001
-3,1
7,8000000000000025
-5,700000000000001
1,9
0
-0,2
-0,1
-0,3
-0,3
0
5
5,300000000000001
-1,3000000000000003
-4,7
-5,800000000000002
-12,700000000000006
-7,400000000000002
-9,200000000000003
-6,4
-5,5
-4,199999999999999
-8,900000000000004
-7,400000000000002
-13,500000000000007
-5,9
-4,6
-7,500000000000002
-20,89999999999999
-8,000000000000002
5,1000000000000005
-3,3
0,3
0,2
0,2
-0,1
-0,1
0
0,2
4,8
1,5
-5,4
-5,800000000000001
-18,1
-17,300000000000004
-6,200000000000001
-20,499999999999993
-22,899999999999984
-17,700000000000003
-17,500000000000004
-21,69999999999999
-15,600000000000007
-20,099999999999994
-18,200000000000003
-15,700000000000008
-19,799999999999997
-17,000000000000007
-10,400000000000004
-8,500000000000004
-3,8999999999999995
-0,2
-0,2
-0,1
0
0,2
-0,2
0,3
-0,2
0
-2,1999999999999997
-2
-6,300000000000002
-5,700000000000001
-2,3
-3,0999999999999996
-3,1999999999999997
-4,1
-8,400000000000002
-1,7999999999999998
-0,5
-0,30000000000000004
-5,4
-5,1000000000000005
-0,9
-0,8
-0,2
-0,3
0,1
0
0,3
-0,3
0,2
0,1
-0,2
-0,2
-0,2
0,3
-0,1
-0,2
0,1
0,2
0,2
-0,1
-0,3
-0,3
0,3
-0,2
-0,2
-0,2
0,3
0,2
0,2
0,1
0
0,3
0,3
0
0,3
0,3
0,3
-0,2
-0,1
0,1
0
-0,2
0,2
-0,1
-0,3
-0,5
-0,5
-0,8
-0,7000000000000001
-0,2
-0,3
-1,2000000000000002
-0,9
-0,9
-1,1
-1,3
-1,1
0,1
0,2
-0,1
0,1
-0,2
-0,1
-0,3
-0,3
-0,1
-0,2
0,1
-0,3
-0,1
-0,1
-2
-2
-5,500000000000001
-9,800000000000004
-8,900000000000004
-10,500000000000005
-9,200000000000003
-10,300000000000004
-14,90000000000001
-10,500000000000005
-3,9999999999999996
-4,199999999999999
-2,4
-2,8
-7,500000000000003
0,7000000000000001
0,9
-1,7000000000000002
0
-0,1
-0,2
-0,1
0,3
-0,3
4,7
5
-1,1
-5,800000000000001
-14,300000000000008
-9,800000000000004
-8,900000000000004
-8,500000000000004
-0,1000000000000002
-1,3000000000000003
-2,3000000000000003
-10,700000000000005
2,1999999999999997
-1,5000000000000004
-6,300000000000001
-8,700000000000003
4,5
-3,1
-1,2000000000000002
-5,9
-7,000000000000002
-3,8999999999999995
-8,600000000000003
1,3
-0,3
-0,1
-0,3
-1,1
4,3999999999999995
-6,900000000000002
-5,500000000000001
-5,1000000000000005
-3,5999999999999996
-11,100000000000005
-3,1999999999999997
-4,3
2,0999999999999996
-4,9
-3,1999999999999997
-4,3
-2,5
0,5000000000000002
2,2000000000000006
1,2999999999999998
-2,5
2,0999999999999996
-0,20000000000000084
2,5
2,3000000000000003
4,3999999999999995
6,700000000000002
0,9
-2,5
0,3
0,3
-2,1
2,5
-13,900000000000007
-2,1999999999999997
-1,4
0,8999999999999998
-2,6999999999999993
-1,7000000000000002
-1,6
-0,5999999999999999
-3,1999999999999997
-4,7
-3,1
-3,1
-4,799999999999999
-0,1000000000000002
7,8000000000000025
-0,5999999999999994
1,4
4,5
0,5
4,6
4,5
-8,700000000000003
3,3
-2,9999999999999996
-0,3
-0,1
0,7
-3,1999999999999997
1,6
4,9
-1,6
-0,2999999999999996
5,300000000000001
3,5
-1,1
1,3000000000000003
-3,7999999999999994
-4,5
-4,9
-7,100000000000001
-3,6999999999999997
-0,2000000000000004
-1,3000000000000003
1,0999999999999996
-7,771561172376096E-16
1,1102230246251565E-16
3,7999999999999994
2,9999999999999996
-0,30000000000000004
6,4
5
3,3999999999999995
0,2
-0,2
0,10000000000000009
-4,5
-20,999999999999993
-12,700000000000005
-1,8999999999999995
-1,8000000000000007
1,1000000000000005
-6,100000000000001
0,7000000000000001
0,8000000000000002
-7,500000000000002
-1,1000000000000003
-2,399999999999999
0,8000000000000002
1,3000000000000003
-0,7000000000000001
-0,9000000000000002
0,7000000000000001
7,000000000000002
4,9
4,6
-1,0000000000000009
5,4
6,900000000000002
-0,7000000000000005
1,7000000000000002
0,1
0,2
-5,700000000000001
-10,700000000000005
-10,500000000000005
15,000000000000009
0,20000000000000018
-1,2999999999999998
-4,9
-1,8000000000000003
0,30000000000000004
-1,0999999999999999
1,4999999999999996
-3,899999999999999
-0,2999999999999996
-2,1
-3,199999999999999
-2,5
5,1
1,5000000000000004
-6,100000000000001
1,7999999999999998
6,500000000000002
2,2999999999999994
8,000000000000002
6,200000000000001
-6,700000000000001
-2,5999999999999996
-0,1
0,2
-1,4
-14,300000000000008
-14,900000000000007
-11,300000000000006
-5,500000000000001
-7,400000000000002
2,5
-2,4999999999999996
-1,600000000000001
0,6999999999999996
2,7
1,6
-1,0999999999999996
-5,300000000000001
-2,9999999999999996
-7,000000000000002
-7,500000000000002
-0,3000000000000005
-3,6999999999999997
-1,6999999999999997
0,5000000000000002
7,000000000000002
16,60000000000001
7,000000000000002
7,700000000000003
3,0999999999999996
-0,3
-2,5
-3,1999999999999997
-16,300000000000008
-9,500000000000004
6,4
1,6
13,400000000000007
0,5000000000000002
3,1
-1,4000000000000004
1,4999999999999996
1,0999999999999996
1,1000000000000005
-4,1
-1,3999999999999995
-1,9999999999999991
0,9000000000000007
-3,899999999999999
-12,100000000000007
-15,100000000000007
-11,400000000000006
-1,3999999999999997
0,5000000000000002
26,89999999999997
27,89999999999997
17,900000000000002
-0,10000000000000009
-0,3
-2,5
-2,9
-5,1000000000000005
10,700000000000005
4,6000000000000005
7,700000000000003
-2,9999999999999996
2,1999999999999997
0,1999999999999994
-0,6999999999999998
-1,8000000000000007
3,6999999999999997
3,9999999999999987
0,9999999999999999
0,8000000000000002
-5,5
-5
-8,200000000000003
-6,100000000000001
-7,900000000000002
-16,400000000000006
-32,99999999999995
-9,400000000000004
16,60000000000001
45,09999999999991
23,399999999999984
-0,10000000000000009
0,1
-2,5
-3,0999999999999996
-4,6
2,5
-0,2999999999999996
4,9
0,6000000000000009
-1,3
1,4
1,7000000000000002
5
3,3999999999999995
1,3000000000000003
2,4
4,1
-4,1
-3,7999999999999994
-3,3
0,5000000000000002
-4,1
-9,400000000000004
-12,000000000000004
-35,69999999999994
-41,79999999999992
-1,7000000000000002
15,80000000000001
-0,30000000000000004
-0,3
-3,0999999999999996
-2,9
-0,7000000000000001
1,2000000000000002
10,600000000000005
-3,9999999999999987
-1,3999999999999995
-0,19999999999999962
6,700000000000001
2,9999999999999996
1,9000000000000004
1,5
3,3
0,40000000000000013
-3,6999999999999997
-4,199999999999999
-9,100000000000003
-0,19999999999999984
-1,0999999999999996
-4,5
-4,299999999999999
5,800000000000001
-13,600000000000005
-56,899999999999864
-31,899999999999956
5,500000000000001
0,3
2,3
-0,30000000000000004
-1,5
-3,9
2,1999999999999997
-4,399999999999999
2,9
-1,3999999999999995
0,20000000000000084
1,7000000000000002
4,6
-1,5000000000000004
2,5
2,1
-5,300000000000001
-3,899999999999999
-3,9999999999999987
1,1
-1,5000000000000004
4,7
-2,9
2,1
-2,9999999999999996
-2,5999999999999996
-8,600000000000003
-12,200000000000006
-1,9
-0,3
1,1
-0,10000000000000003
-1,9
1,7999999999999998
10,200000000000005
-3,5
-8,400000000000002
-4,699999999999999
-3,6999999999999997
-3,099999999999999
3,3
1,0999999999999996
0,3000000000000005
0,8999999999999998
2,5
0,20000000000000018
1,9000000000000004
2,8
-0,39999999999999925
0,2999999999999998
-2,599999999999999
-1,3999999999999995
2,6999999999999997
8,700000000000003
2,5
-3,1
-6,000000000000001
-3,3999999999999995
-1,2000000000000002
-0,10000000000000003
-2,5
-2,1
-7,8000000000000025
-5,900000000000001
0,40000000000000013
-5,4
1,1000000000000005
0,7000000000000005
-4,9
-0,9000000000000002
-0,5999999999999996
-4,9
-2,5999999999999996
-2,1
-4,1
-2,2000000000000006
3,5
0,20000000000000018
-3,9999999999999987
-1,0999999999999999
-4,199999999999999
-5,800000000000001
-3,3
-4,5
-9,700000000000005
-3,4999999999999996
-0,3
-0,7
-3,4999999999999996
-0,20000000000000018
4,9
7,000000000000002
1,3000000000000003
-0,09999999999999953
-5,1
-0,7000000000000005
-9,400000000000004
-6,500000000000002
0,09999999999999976
-3,6999999999999997
-1,4
-6,100000000000001
-0,19999999999999984
-2
8,900000000000004
3,099999999999999
-1,3000000000000003
-2,7
2,5
3,9
9,300000000000004
-19,799999999999997
-9,000000000000004
-4,8
-0,3
-3,4999999999999996
-4,3
3,9999999999999996
0,9999999999999999
4,6
-3
-9,300000000000004
-11,400000000000006
-2,1999999999999997
-4,199999999999999
-2,399999999999999
-2,1999999999999997
-7,3000000000000025
-2,6000000000000005
-0,6000000000000004
1,3000000000000003
-0,7000000000000001
4,5
-5,800000000000001
-2,5999999999999996
-2,4
1,1
4,299999999999999
0,9999999999999999
-15,100000000000009
-5,1000000000000005
-0,5
0
-3,6999999999999997
3,6999999999999997
-5,400000000000001
-4,799999999999999
-2,5999999999999996
7,100000000000001
0,1000000000000002
-1,5
-4,699999999999999
0,5000000000000002
1,1
4,399999999999999
-2,9
4,1
-2,7
-3,899999999999999
2,5
0,9000000000000002
2,1
0,6999999999999996
-0,10000000000000042
1,0000000000000004
-1,7000000000000002
0,9999999999999997
-3,6999999999999997
-8,300000000000002
-0,7000000000000001
0,1
0,2
3,0999999999999996
-4,7
4,6
1,4000000000000008
-4,1
2,6999999999999993
2,5
4,399999999999999
-4,1
-1,9000000000000004
7,900000000000002
2,5999999999999996
-2,599999999999999
-2,5
-2,4
-0,1000000000000002
1,7000000000000002
-0,09999999999999998
2,6999999999999993
3,9
-0,5999999999999999
4,799999999999999
0,40000000000000013
-12,500000000000007
-5,1000000000000005
0
0,1
-0,2
-6,700000000000002
-5,2
2,4
-0,19999999999999984
0,7000000000000001
2,1999999999999997
-0,20000000000000084
8,700000000000003
-3,0000000000000004
3,6999999999999997
-3,3
-1,0000000000000009
2,1
0,09999999999999998
4,6
-3,099999999999999
4,6
0,9000000000000002
-3,7999999999999994
6,600000000000001
3,199999999999999
13,900000000000006
12,700000000000006
-5,800000000000001
0,20000000000000007
0,2
0
0,3
-4,3
8,200000000000003
0,19999999999999962
1,8000000000000003
1,0000000000000004
-0,1000000000000002
3,199999999999999
5,9
0,7999999999999993
0,9999999999999999
5,4
2
-2,2999999999999994
6,000000000000001
0,5
-3,6999999999999997
0,30000000000000004
2,5999999999999996
3,499999999999999
2,5
7,8000000000000025
-11,200000000000005
0,20000000000000018
-3,6999999999999997
0,7000000000000001
0,3
0,1
-0,3
-0,6
-3,3999999999999995
2,1
0,9
-5,1
0,6999999999999998
3,8000000000000003
5,300000000000001
-1,7000000000000002
5,300000000000001
2,5
2,599999999999999
-1,2000000000000002
-2,0999999999999996
-1,6
1,2000000000000002
-4,5
1,4
-5,500000000000001
2,9
5,800000000000001
11,100000000000005
-7,400000000000002
2,6999999999999997
5
0
-0,3
0,1
0,3
3,8999999999999995
3,1999999999999997
9,400000000000004
2,2000000000000006
-2,5
3,3
-5,4
5,300000000000001
-4,199999999999999
3,7999999999999994
1,3999999999999995
2,5
5,700000000000001
-0,9000000000000002
1,8000000000000003
-3,7999999999999994
-4,199999999999999
1,2000000000000002
-7,700000000000003
-1,3000000000000003
-10,300000000000004
3,1999999999999997
-5,900000000000001
-4,5
0,1
-0,1
0,3
-0,1
4,9
-1,7999999999999998
-0,5999999999999999
-0,9999999999999999
7,800000000000003
2,1
2,9
1,7000000000000002
1,0000000000000004
0,7000000000000005
2,6
6,300000000000001
-0,9000000000000002
-3,6999999999999997
-3,9
9,500000000000004
4,2
-9,700000000000005
-3,9
4,3
3,9999999999999996
8,600000000000003
-0,3
0,3
0,2
0,2
-0,2
0,2
0,2
-0,1
-0,30000000000000004
-5,500000000000001
-9,000000000000004
-16,60000000000001
-14,90000000000001
2,8
2,8
-6,100000000000001
2
-3,9
-4,1
-1,5000000000000004
-3,6999999999999997
-8,200000000000003
-10,500000000000005
0,6999999999999998
-0,30000000000000004
-2,5999999999999996
3,4999999999999996
0,1
-0,3
-0,2
0,1
0
0,2
0,3
0,2
-0,1
0
0
0,3
0,2
0,2
2,4
0,7000000000000001
-1,9
-3,0999999999999996
-3,9999999999999996
-3,0999999999999996
-1,5
-1,2000000000000002
-1,4
-0,5
-3,0999999999999996
-2,6999999999999997
-2,1
-0,1
-0,2
0
0,2
-0,3
0
0,3
-0,2
-0,1
-0,1
0
0,1
0,3
0,3
0,2
-0,2
0
1,5
1
0
0,2
0,3
0
-0,1
0,3
-0,3
0,1
0,2
-0,2
-0,2
-0,2
0,3
0
0,3
0
0
0,2
0,1
-0,1
-0,1
0,30000000000000004
6,500000000000002
5
7,500000000000003
3,9999999999999996
8,700000000000003
1,3000000000000003
0,9000000000000002
-5,700000000000001
-0,1000000000000002
1,1
6,900000000000002
2
0,8
0,2
0,4
0,2
-0,2
0,3
-0,3
0,2
-0,2
0,3
-0,3
-0,2
0
-0,2
-0,7000000000000001
1,2000000000000002
13,100000000000007
-4,9
12,300000000000006
1,7000000000000002
1,7999999999999998
6,900000000000002
0,5000000000000002
2,9999999999999996
0,8000000000000002
7,000000000000002
7,600000000000001
6,4
4,3999999999999995
14,300000000000008
10,700000000000005
8,700000000000003
0,6000000000000001
-3,5999999999999996
-0,3
0,1
-0,3
0,2
-2,3
-0,7000000000000001
3,4999999999999996
9,600000000000003
-3,1
14,600000000000009
1,3000000000000003
-2,2000000000000006
-0,7000000000000005
2,2
-2,8
2,9
-0,2999999999999998
-2,1
-4,5
-0,9
0,5999999999999999
-5,000000000000001
-10,300000000000004
11,400000000000006
0,9999999999999999
0,3999999999999999
3,1
14,800000000000008
1,1
0,2
-0,3
-0,2
0,29999999999999993
-1,7000000000000002
5,300000000000001
2,3
1,1
-9,100000000000003
-3,3999999999999995
1,4000000000000008
4,7
-10,200000000000005
-5,300000000000001
-8,100000000000003
-1,5000000000000004
-9,400000000000004
-5,1
-2,6000000000000005
4,699999999999999
3,499999999999999
4,699999999999999
3,3
1,2000000000000002
1,7999999999999998
-9,400000000000004
-3,7999999999999994
2
4,6
0
-0,2
0,6000000000000001
-4,6
6,200000000000001
-0,1000000000000002
-7,500000000000002
0,7000000000000001
-5
0,09999999999999953
-4,199999999999999
1,4000000000000004
-4,6
-3,9999999999999987
-1,1000000000000005
1,2999999999999998
2,5
4,1
-8,200000000000003
3,3999999999999995
-4,7
-8,900000000000004
1,4
-6,200000000000002
5,300000000000001
-10,100000000000005
9,500000000000004
4,5
0,1
-0,3
1
-8,200000000000003
2,6
-5
-14,300000000000008
17,700000000000003
-8,500000000000004
-0,3000000000000005
-6,500000000000002
1,7000000000000002
5,300000000000001
-2,5999999999999996
-1,1
-9,900000000000004
-3,099999999999999
-1,4
-1,4999999999999996
-5,700000000000001
-1,6999999999999997
-2,9
9,800000000000004
-1,3999999999999997
9,600000000000003
-11,800000000000006
3,6999999999999997
4,199999999999999
-0,1
-0,3
-0,2
-8,100000000000003
4,3999999999999995
-7,900000000000002
1,0000000000000004
-0,7000000000000005
1,4000000000000004
-1,7000000000000002
-1,7000000000000002
-4,699999999999999
-3,199999999999999
-6,500000000000002
-0,9999999999999999
-4,399999999999999
-0,3000000000000005
-5,800000000000001
-9,800000000000004
-5,700000000000001
-5,700000000000001
-9,500000000000004
-7,100000000000001
-17,400000000000006
-20,699999999999992
-1,6
6,500000000000002
4,199999999999999
-0,1
-0,3
-0,1
-14,700000000000008
-8,700000000000003
-16,10000000000001
0,5999999999999999
-3,3999999999999995
6,300000000000001
-0,2999999999999996
4,3999999999999995
-3,3
-5,5
2,4
-3,3999999999999995
0,6000000000000004
-10,000000000000004
-2,2999999999999994
-4,399999999999999
-8,800000000000002
-10,200000000000005
8,700000000000003
-2,799999999999999
-6,300000000000001
-13,500000000000007
-12,600000000000007
7,500000000000003
-0,2
-0,3
-0,1
-3,3999999999999995
-5,900000000000001
-2,3000000000000003
-12,100000000000007
-15,80000000000001
6,600000000000001
2,0999999999999996
-4,6
-4,299999999999999
3,1999999999999997
0,6000000000000004
1,9
3,7
-3,099999999999999
-6,900000000000002
-7,000000000000002
-10,200000000000005
-10,600000000000005
-11,700000000000006
-8,500000000000004
-6,600000000000001
-15,500000000000007
0,9000000000000002
-15,90000000000001
-9,700000000000005
-1,9
0,1
0,1
-3,5999999999999996
-9,800000000000004
-10,300000000000004
7,500000000000002
7,400000000000002
-5,1
-5,4
0,3000000000000005
-7,3000000000000025
-11,100000000000005
3,8
-2,3000000000000003
-1,0000000000000009
-1,4
4,5
-7,3000000000000025
-4,9
-6,900000000000002
-5
-2,9
-3,6999999999999997
-0,9000000000000002
-3,9
-14,300000000000008
-20,499999999999993
-6,200000000000001
-0,3
-0,3
-0,3
-11,900000000000006
-13,100000000000007
7,400000000000002
-2,9999999999999996
3,1
0,19999999999999918
0,6000000000000004
-0,7999999999999999
1,8000000000000007
2,000000000000001
-1,1000000000000005
-1,4
-8,100000000000003
-8,100000000000003
1,7000000000000002
0,9000000000000002
-1,3000000000000003
-1,1999999999999993
0,49999999999999956
5,6
3,3
-6,600000000000001
-11,100000000000005
-7,000000000000002
-5,4
-0,1
-0,2
-0,3
-13,900000000000007
-12,300000000000006
-13,100000000000007
12,700000000000006
-1,0000000000000007
4,699999999999999
-3,6999999999999997
-0,2999999999999998
0,09999999999999976
1,5000000000000004
3,099999999999999
2,8
-6,200000000000001
-2,5
-3,5
-0,1000000000000002
-0,5999999999999999
2,4999999999999996
-0,1000000000000002
-1,2000000000000002
17,100000000000005
-0,5000000000000002
-9,900000000000004
-14,200000000000008
-2,3
0,1
0,3
0,2
-10,100000000000005
-9,700000000000005
-4,3999999999999995
3,6999999999999997
1,5999999999999992
-0,7000000000000001
4,399999999999999
-3,8000000000000003
7,200000000000001
1,4
-1,1000000000000005
0,1000000000000002
0,09999999999999976
1,2000000000000002
-2,2999999999999994
1,9
0,2000000000000004
8,800000000000002
11,800000000000006
6,900000000000002
0,5
8,100000000000003
3,2999999999999994
-21,899999999999988
-0,9
0,2
-0,2
0,1
-4,9
-8,900000000000004
-1,7999999999999998
-2,6999999999999997
-0,4999999999999998
1,1102230246251565E-16
4,5
1,7000000000000002
0,8000000000000002
-1,7000000000000002
-3,6999999999999997
-3,0999999999999996
-3,6999999999999997
-7,700000000000003
2,3000000000000003
-0,9000000000000002
4,7
0,5999999999999994
-0,9000000000000002
3,5999999999999996
13,400000000000007
-7,8000000000000025
7,700000000000003
-20,299999999999994
-0,9
-0,1
0,1
-0,1
-3,4999999999999996
-7,8000000000000025
-7,000000000000002
7,400000000000002
-2,8
3,499999999999999
-3,8000000000000003
4,5
0,40000000000000013
-6,900000000000002
7,500000000000002
-0,3000000000000005
-1,6999999999999997
5,9
-10,900000000000006
-1,7999999999999998
3,1999999999999997
5,300000000000001
-1,4000000000000004
8,200000000000003
-7,100000000000001
5,300000000000001
-3,1
-18,7
-0,6000000000000001
0,2
0,2
-0,3
1,0000000000000002
-10,700000000000005
0,2000000000000004
-11,500000000000005
4,6
5,4
4,7
5,700000000000001
0,6000000000000009
4,6
8,900000000000004
2,5
-4,199999999999999
-2,9
-6,800000000000001
8,500000000000004
4,8
-2,2000000000000006
-2
-5
-0,09999999999999953
-8,600000000000003
-4,6
-21,79999999999999
-4,3
0
0,2
-0,3
-2,7
-7,100000000000001
-4,1
8,600000000000003
-4,699999999999999
-3,099999999999999
4,6
-0,5000000000000002
6,500000000000002
-4,9
1,0000000000000004
-5,1
4,5
1,8000000000000007
-3,9
-4,1
4,1
12,900000000000007
4,3
-3,0000000000000004
5,4
5,300000000000001
-5,5
-4,7
-3,7999999999999994
-0,3
0,2
0,1
-7,3000000000000025
-2,5
-6,100000000000001
-2,1
2,4
5,1000000000000005
-1,1102230246251565E-16
6,500000000000002
8,600000000000003
2,5999999999999996
1,9000000000000004
-0,7999999999999993
-1,5000000000000004
3,4000000000000004
3,099999999999999
2,1
2
-5
0,20000000000000018
2,1999999999999997
-4,699999999999999
-1,4
-5,800000000000001
-6,100000000000001
-0,4
0
0,3
-1,6
-8,800000000000002
-12,900000000000007
2
-3,5
-3,3
0,9
9,500000000000004
13,300000000000006
-0,10000000000000064
1,9000000000000004
6,200000000000001
1,7000000000000002
-2,3000000000000003
6
-0,1999999999999994
0,19999999999999962
4,1
1,2
-0,30000000000000027
-0,8999999999999996
1,8000000000000007
-7,200000000000001
3,1999999999999997
-8,100000000000003
-0,6000000000000001
0,1
0,3
-1,9
-11,800000000000006
-9,200000000000003
-5
2,5
0,5000000000000002
-3,5
0,5
5
7,8000000000000025
5,9
-2,8
-0,40000000000000013
7,8000000000000025
-2,7
0,19999999999999984
5,300000000000001
-3,5
-2,7
-2,4
-1,5
3,3
-9,100000000000003
-1,4
-5,500000000000001
0,2
0,3
-0,1
-2,1
-7,700000000000003
-11,400000000000006
0,2000000000000004
-14,500000000000007
-2,9999999999999996
-2,0999999999999996
0,7000000000000005
1,1000000000000005
-0,9999999999999994
4,6
10,900000000000006
7,3000000000000025
7,000000000000002
3,499999999999999
2,3000000000000003
4,1
4,3
0,1000000000000002
-0,5999999999999996
-12,300000000000006
-4,199999999999999
-10,500000000000005
8,200000000000003
2,1
-0,3
0,2
0
0,1
-3,3
-7,100000000000002
-11,400000000000006
-4,199999999999999
0,5999999999999999
-2,3
1,5000000000000004
-2,2999999999999994
0,6000000000000009
-1,4
0,3000000000000005
4,299999999999999
-2,6999999999999993
2,3000000000000003
-1,7000000000000002
1,2000000000000002
1,7000000000000002
-2,1999999999999997
-8,100000000000003
12,200000000000006
-11,100000000000005
-14,800000000000008
-4,7
4,199999999999999
0,1
0,1
0,1
-0,1
-0,1
-0,2
-1,7999999999999998
-11,700000000000006
-10,200000000000005
-13,800000000000008
-10,300000000000004
-1,2000000000000002
-8,900000000000004
-2,5
-1,7000000000000002
-12,200000000000006
-2,7
3,9
-5,199999999999999
-6,200000000000001
-2,9999999999999996
0,6000000000000004
2,6999999999999997
4,3
-10,700000000000005
-6,600000000000001
-5,500000000000001
-0,2
0
0,2
0,1
0,3
0,1
-0,1
0,1
-1,5
-5,1000000000000005
-5,2
-6,700000000000002
-14,300000000000008
-5,700000000000001
-4,3
-12,400000000000006
-3,6999999999999997
-12,600000000000007
-14,600000000000009
-6,000000000000001
-5,900000000000001
-14,500000000000009
-12,600000000000007
-7,900000000000003
-5
-1,7000000000000002
-0,6000000000000001
-0,7
0,2
0,2
-0,2
0,2
-0,2
-0,2
0,3
0,2
-1,1
-0,7000000000000001
-1,7999999999999998
-1,3
-3,1999999999999997
1,5
-2,9
-3,9
-6,000000000000001
-8,600000000000003
-7,600000000000002
-1,7000000000000002
-1,9
-2,9999999999999996
-3,1999999999999997
-1,9
0,2
-0,6000000000000001
-0,1
-0,1
-0,1
-0,3
0
0,3
-0,1
-0,1
0,2
-0,2
0,2
0,1
-0,4
-0,2
0,3
-0,2
0
-0,2
-0,30000000000000004
0,3
0,3
-0,1
-0,3
-0,7
-1,9
-0,9
-1,2000000000000002
-0,1
-0,1
0
-0,1
0,1
-0,3
-0,1
0,3
0,1
-0,1
-0,3
-0,2
-0,2
0
-0,2
0
0,1
-0,1
0,3
0,2
0,1
-0,3
-0,1
0,2
0,1
-0,9
-1
-1
0,3
-0,2
-0,1
0,3
0
-0,1
-0,3
-0,3
-0,1
0,3
-0,3
0,1
-0,3
0,3
-0,2
0,3
-0,1
0,1
-0,1
0
0,2
0,3
-0,1
0,2
-0,2
-0,2
0,2
-0,1
0,3
0,1
0,1
0,2
-0,2
0
0,3
0
-0,3
-0,3
0,1
0,3
0
-0,7
-0,6000000000000001
-0,2
-0,2
-0,2
0,1
0,1
0,2
0
-0,1
-0,3
0
-0,1
-0,3
-0,3
0,2
0,1
0,1
-0,1
0
0,1
-0,2
0,1
-0,2
-0,1
-0,1
-0,30000000000000004
-0,7
-0,30000000000000004
-0,9
-1,4
-1,1
-1,6
-1,3
0,1
0,1
-0,30000000000000004
-0,4
-0,10000000000000003
-0,30000000000000004
-0,6000000000000001
0
-0,1
-0,2
0,1
-0,2
0,3
0
0,3
0,1
-0,1
0
-0,2
-0,1
0,2
-2,1
-3,1999999999999997
-7,100000000000002
-5
-6,100000000000001
-4,3
-7,500000000000003
-5,1000000000000005
-5,1000000000000005
-1
-2,5
-3,0999999999999996
-2,5
-0,9
-0,5
-0,6000000000000001
-0,3
0,1
0,2
-0,1
-0,2
0,2
-0,1
0
-0,2
-4,1
-7,8000000000000025
-5,1000000000000005
-7,900000000000003
-11,600000000000005
-10,200000000000005
-19
-6,600000000000001
-5
-11,800000000000006
-5,800000000000001
-9,100000000000003
-15,40000000000001
-11,500000000000005
-13,900000000000007
-9,200000000000003
-9,200000000000003
-3,7999999999999994
0,09999999999999998
-2,9999999999999996
-2,1999999999999997
-2
-0,3
0
0
-0,1
0,2
-2,4
-14,90000000000001
-3,1
-5
-4,3
5,700000000000001
-3,899999999999999
-0,3999999999999999
-6,600000000000001
2,8
-1,5000000000000004
0,6000000000000004
-10,500000000000005
4,6
-3,7999999999999994
-9,400000000000004
-4,699999999999999
-13,400000000000007
-10,300000000000004
-8,500000000000004
-7,100000000000002
-2,1999999999999997
0,2
0,1
-0,3
-0,1
0,2
1,1
8,700000000000003
0,49999999999999956
0,09999999999999998
8,800000000000002
-0,6000000000000009
-1,3000000000000003
3,4000000000000004
-1,7999999999999994
2,399999999999999
4,1
-0,30000000000000004
-3,5
-2,999999999999999
-0,8000000000000002
3,8000000000000003
1,2999999999999998
-3,3
1,3000000000000003
0,5000000000000002
-11,200000000000005
-3,3
-4,6
-2,1
-3,3
-0,4
-0,3
2,1
4,3
1,8000000000000007
-5,300000000000001
-0,6000000000000004
2,9999999999999996
9,400000000000004
4,5
4,5
3,7999999999999994
3,099999999999999
-0,6999999999999998
-4,9
-3,3
-2,5
-8,300000000000002
3,3
4,1
0,5000000000000002
3,3
0,09999999999999976
2,2000000000000006
12,800000000000006
-9,000000000000004
-9,700000000000005
-5,700000000000001
-1,1
-0,2
8,100000000000003
3,3
8,100000000000003
7,000000000000002
-2,5
0,9999999999999999
3,899999999999999
-2,9
-0,4999999999999998
-2,3000000000000003
2
-0,19999999999999962
5
1,2000000000000002
2,1999999999999997
-5,700000000000001
-0,7000000000000001
2,1999999999999993
-3,1
3,9
5,300000000000001
1,2999999999999996
3,5999999999999996
-1,7000000000000002
-6,100000000000001
-9,300000000000004
-1,7000000000000002
0,3
9,100000000000003
5,900000000000001
12,900000000000007
-7,8000000000000025
2,5999999999999996
5,1
3,1
3,3
0,9000000000000002
2,1999999999999997
0,9
5,4
5,2
6,700000000000001
2,5
10,100000000000005
5,6000000000000005
3,5
2,3
0,8000000000000002
2,4
2
2,1
-1,2000000000000002
-6,600000000000001
-11,700000000000006
2,1
0,3
7,700000000000003
3,1
0,7000000000000005
11,300000000000006
-0,1000000000000002
-5,1
0,09999999999999998
-5,1
6,900000000000002
-1,8000000000000007
0,5000000000000002
7,8000000000000025
6,800000000000001
6,200000000000001
4,299999999999999
4,699999999999999
7,700000000000003
3,7999999999999994
2,5999999999999996
4,6
0,2999999999999998
2,4
2,5999999999999996
-2
4,9
-5,700000000000001
3,8999999999999995
-0,1
4,9
16,500000000000007
7,900000000000002
5
1,9000000000000004
0,1000000000000002
3,5
-0,6000000000000009
-3,3
1,7000000000000002
-7,600000000000001
-4,399999999999999
3,099999999999999
0,49999999999999956
6,900000000000002
9,400000000000004
6,600000000000001
-9,992007221626409E-16
0,09999999999999998
4,9
3,9999999999999987
-2,5
2,8
-6,100000000000001
2
-6,600000000000001
4,5
0,1
7,600000000000001
10,000000000000004
12,800000000000006
-4,5
1,7000000000000002
3,3
0,3000000000000005
0,3000000000000005
-9,000000000000004
-0,5999999999999994
-0,8000000000000002
-10,400000000000004
-3,3999999999999995
-5,800000000000001
-2,1
2,5
2,7
-0,4999999999999998
-2,9
-4,5
-3,6999999999999997
2,5
-4,299999999999999
-15,900000000000007
2,6999999999999997
1
4,7
-0,1
1,2000000000000002
7,700000000000003
8,600000000000003
-3,1999999999999997
-3,899999999999999
-3,3
-1,7000000000000002
-8,400000000000002
-0,8000000000000002
-2
1,0000000000000009
-11,800000000000006
-15,000000000000009
0,9000000000000007
2,5
7,3000000000000025
-0,3000000000000005
8,000000000000002
-0,49999999999999956
-1,2999999999999998
-1,7000000000000002
7,200000000000001
-7,900000000000002
-3,7999999999999994
8,700000000000003
1,4
-0,6000000000000001
-0,1
1
3,0999999999999996
15,70000000000001
5,1000000000000005
7,8000000000000025
-0,7000000000000005
-1,9999999999999991
-0,30000000000000027
-3,6999999999999997
-1,3
-4,399999999999999
-8,400000000000002
-10,900000000000006
-10,100000000000005
-0,40000000000000013
-4,6
-2,799999999999999
-2,6999999999999993
1,3000000000000003
7,500000000000002
3,099999999999999
1,3000000000000003
3,3
-8,600000000000003
-9,400000000000004
-1,2000000000000002
-0,5
-0,3
0
-2,6999999999999997
1,7000000000000002
-2,1
-3,7999999999999994
-3,3
-5,9
-2,4
-5
-6,100000000000001
-7,600000000000001
-9,500000000000004
-6,300000000000001
-3,3
-6,300000000000001
6,900000000000002
8,300000000000002
9,200000000000003
-1,600000000000001
0,7000000000000001
3,9
3,7999999999999994
6,500000000000002
4,7
-0,40000000000000013
-1,4
0
0,2
-0,1
-4,199999999999999
-2,3
-6,500000000000002
-0,19999999999999984
-0,5000000000000002
2,5999999999999996
2,6999999999999993
-7,700000000000003
-2,6999999999999993
-9,000000000000004
1,3000000000000003
-7,3000000000000025
-0,7000000000000005
0,7000000000000005
0,4999999999999998
0,9999999999999999
-3,4999999999999996
3,7999999999999994
-0,799999999999999
3,1
1,2000000000000002
2,7
-0,1000000000000002
-21,09999999999999
-6,500000000000002
-2,9999999999999996
0,1
-0,1
0,6
-3,3
-2,9
1,9000000000000004
1,5
0,9999999999999999
0,5000000000000002
-10,600000000000005
-2,1999999999999997
-2,1
-2,5
-4,7
-3,4000000000000004
-2,2000000000000006
-1,4000000000000008
-1,7999999999999998
0,40000000000000013
2,5
5,500000000000001
-1,3999999999999995
-0,6999999999999998
-2,9999999999999996
-11,700000000000006
-6,700000000000002
-0,09999999999999998
-3,6999999999999997
2,3
0,3
2,5999999999999996
-3,7999999999999994
6,600000000000002
1,2999999999999996
3,6999999999999997
0,7999999999999999
-7,900000000000002
-0,9999999999999999
-10,100000000000005
-0,7000000000000005
1,2000000000000002
-1,8000000000000003
1,1000000000000005
-3,7999999999999994
-5,9
-3,5
0,8000000000000002
5,6000000000000005
1,3000000000000003
-1,1000000000000005
2,5
2,9
-20,699999999999992
7,000000000000002
7,900000000000003
-0,6000000000000001
-0,1
3,6999999999999997
4,3
2,2
-5,6000000000000005
-0,40000000000000013
-31,399999999999956
-0,7000000000000001
-2,3000000000000003
-4,1
-2,6999999999999997
-1,4000000000000004
-0,40000000000000013
5,900000000000001
-1,5000000000000004
-3,5
-3,7999999999999994
-1,3000000000000003
-10,200000000000005
-5,5
-3,3
-10,900000000000006
-5,1
-18,200000000000003
-6,700000000000002
-5,2
0,2
-0,2
-0,2
0,1
2,9
-2,3
5,800000000000002
2,2
-13,400000000000007
-5,5
-3,3999999999999995
-6,600000000000001
2,9
2,6999999999999993
-0,2999999999999996
0,9999999999999997
-0,5999999999999999
-0,7000000000000005
1,3000000000000003
-5,800000000000001
-11,300000000000006
-6,900000000000002
-4,1
-4,7
-8,100000000000003
-0,9999999999999999
7,3000000000000025
-5,700000000000001
0,3
-0,3
0,3
-0,2
-2
-11,500000000000005
-11,000000000000005
-4,3
-15,80000000000001
-5,300000000000001
-5
-3,5
-5,6
-1,1000000000000005
2,2000000000000006
0,1000000000000002
-0,5999999999999992
-9,300000000000004
-9,800000000000004
-4,199999999999999
-2,799999999999999
-7,500000000000002
-0,40000000000000013
6,900000000000002
-6,200000000000001
-8,000000000000002
8,400000000000002
2,8
-1
0,1
0,2
0,3
-5,2
-15,30000000000001
1,5
-2,3
7,3000000000000025
-3,1
-0,09999999999999998
-2,1
1,0000000000000009
-2,4
-4,1
0,8000000000000002
-0,5999999999999999
-3,3
3,7999999999999994
-2,9
-1,5000000000000004
-2,1
-5,700000000000001
-7,200000000000001
-6,900000000000002
-8,900000000000004
1,9
1,5
-0,8
0,3
0
-0,3
-8,300000000000002
-10,900000000000006
1,8000000000000003
3,3999999999999995
1,2000000000000002
-0,9
-7,000000000000002
3,3
-4,6000000000000005
-7,500000000000002
1,6
0,09999999999999976
0,9000000000000002
-1,4000000000000008
2,9
-2,9
2,5
-4,699999999999999
-6,200000000000001
-13,300000000000008
-10,300000000000004
-6,300000000000002
7,500000000000003
2,6999999999999997
0,2
-0,1
0,3
-0,3
-5,2
-5,500000000000001
8,500000000000004
5,4
2,1
13,500000000000005
-4,5
-2,5
-5
-0,20000000000000018
-6,900000000000002
-5,6
-2,6000000000000005
8,500000000000004
-0,3000000000000005
-0,7000000000000005
3,4000000000000004
-10,200000000000005
8,400000000000002
1,6999999999999997
-11,400000000000006
-6,900000000000002
-0,6000000000000001
-4,9
0,2
-0,3
-0,1
0
-4,7
2,1999999999999997
1,9000000000000004
4,199999999999999
0,7000000000000001
-6,300000000000002
4,9
1,7999999999999998
7,900000000000002
-0,8999999999999998
4,5
5,300000000000001
7,100000000000001
-6,200000000000001
4,1
4,6
-5,800000000000001
-0,30000000000000004
-0,7000000000000001
-8,500000000000004
1,2000000000000002
-1,0000000000000002
1,7999999999999998
0,1
0,2
0,3
0,2
0
-0,2
-0,2
0,8000000000000002
-12,800000000000006
-2,3000000000000003
0,30000000000000004
3,9
1,9000000000000004
1,9000000000000004
1,3000000000000003
2,9999999999999996
6,200000000000001
-0,2999999999999998
8,200000000000003
5,300000000000001
-4,1
9,000000000000004
9,800000000000004
2,1
-6,300000000000002
4,7
5,2
-1,7999999999999998
-0,3
-0,3
-0,1
0,3
0,2
0,1
0,2
0
0,4
0,5999999999999999
0,5
3,9999999999999996
4,199999999999999
11,100000000000005
6,500000000000002
4,1
10,000000000000004
10,300000000000004
6,200000000000001
8,300000000000002
10,400000000000004
6,400000000000001
0,9999999999999999
2,3
4,199999999999999
7,600000000000002
8,600000000000003
-0,1
-0,3
-0,2
0,2
0,1
0,1
-0,3
-0,1
-0,1
0,1
0,3
-0,3
-0,1
0
-0,2
0,1
-0,3
-0,3
-0,2
0
0
0
-0,2
-0,2
0,2
0,2
0,1
0,1
0,1
-0,1
0
-0,2
-0,2
0,2
-0,1
-0,1
-0,1
0
0
0,3
-0,3
0,1
-0,2
0,3
-0,4
-1
-1,4
-0,9
-0,9
0,2
0,2
0,2
0
-0,3
-0,9
-0,5
0,3
0,3
0,3
0,3
-0,3
0
0,2
-0,3
-0,2
0,2
0,2
0
-1,1
-0,6000000000000001
-2,9
-3,1999999999999997
-3,4999999999999996
-10,100000000000005
-10,400000000000004
-13,400000000000007
-11,300000000000006
-7,400000000000002
-6,300000000000002
-2
-0,9
-1
-1,7000000000000002
-1,4
0
0,1
0,2
-0,2
0
0
0
-0,1
-0,8
-0,7000000000000001
-0,5
-1,1
1,9
1,0000000000000002
-10,200000000000005
-9,400000000000004
-4,9
-2,5
-5,700000000000001
6,000000000000001
-14,000000000000005
-15,000000000000009
-7,400000000000002
-1,1000000000000005
-7,900000000000002
-4,3999999999999995
10,400000000000004
1,7000000000000002
4,7
-0,09999999999999998
-0,10000000000000003
0,2
-0,3
0,3
1,2000000000000002
0,1
-4,3
-3,0999999999999996
7,100000000000002
-12,800000000000006
7,400000000000003
-0,9000000000000002
-7,900000000000002
2,7
5,199999999999999
-3,7999999999999994
-3,3
-2,1999999999999997
-2,799999999999999
3,1
-2,9999999999999996
-6,4
-2,5
-1,4
0,30000000000000027
-10,900000000000006
-0,9000000000000002
10,900000000000006
2,5
0,29999999999999993
-0,3
0,2
-0,3
-2,3
-6,700000000000002
-7,900000000000002
8,000000000000002
-10,500000000000005
4,1
-0,30000000000000027
-1,7999999999999998
-6,600000000000001
1,0999999999999996
-4,6000000000000005
-1,0000000000000009
4,799999999999999
4,1
2,1999999999999997
-1,4432899320127035E-15
-3,7999999999999994
-1,6
1,0000000000000009
-5,4
-2,399999999999999
-5,800000000000001
-1,3000000000000003
1,9
-3,6999999999999997
0
-0,2
-0,6000000000000001
-5,700000000000001
-3,3
-4,5
-14,400000000000006
1,1000000000000005
-7,3000000000000025
4,7
-1,7000000000000002
-1,6000000000000014
-2,9999999999999996
-1,700000000000001
5,700000000000001
3,899999999999999
5,300000000000001
2,7
-1,0000000000000009
2,5
0,7999999999999993
1,5000000000000004
0,19999999999999962
1,7000000000000002
4,1
-2,1999999999999997
0,3999999999999999
1
0,1
0
-2,9
-7,000000000000002
5
1,4000000000000008
1,9000000000000004
-2
0,7000000000000005
2,6999999999999993
0,6000000000000009
-1,3000000000000003
3,1
2,1999999999999997
-3,5999999999999988
5,800000000000002
-4,1
-0,30000000000000004
-4,799999999999999
-2,4
-1,1000000000000005
-1,2999999999999998
-3,6999999999999997
5,4
-0,2000000000000004
-9,400000000000004
-2,6000000000000005
6,900000000000002
0,3
-0,3
-6,200000000000001
-7,400000000000002
-6
8,100000000000003
3,3999999999999995
-0,8999999999999996
4,5
0,20000000000000084
-1,3000000000000007
2,9
0,4000000000000008
2,5
0,8000000000000008
-5,800000000000001
-7,500000000000002
-4,6
-5,800000000000001
-0,20000000000000018
-0,09999999999999953
-1,8999999999999995
11,400000000000006
0,5000000000000002
1,5000000000000004
6,300000000000002
2,5
6,100000000000001
-0,2
-0,7
-7,3000000000000025
-9,700000000000005
9,200000000000003
-0,6000000000000009
-2,4
0,19999999999999984
3,7999999999999994
3,3
5,1
2,9
2,5
5,300000000000002
0,20000000000000018
-3,899999999999999
-8,200000000000003
1,1102230246251565E-16
-2,8999999999999995
-2,2999999999999994
2,399999999999999
2,5
5,800000000000001
-0,40000000000000013
3,1
-11,500000000000004
-0,19999999999999984
0,7000000000000001
0,3
-2,1999999999999997
-10,100000000000005
-6,300000000000002
-16,700000000000006
-2,3000000000000003
-2,2000000000000006
1,8999999999999995
2,9999999999999996
5,5
6,800000000000001
2,9999999999999996
2,399999999999999
2,0999999999999996
-1,5999999999999992
-6,300000000000001
-6,100000000000001
-5,4
0,5000000000000002
-0,8999999999999996
1,4
4,799999999999999
11,800000000000006
4,199999999999999
9,500000000000004
-3,199999999999999
-0,5999999999999999
-3,1999999999999997
0,3
-2,1
-8,100000000000003
-16,800000000000004
4,799999999999999
0,9
9,100000000000003
2,1
2,1999999999999997
2,5999999999999996
0,5000000000000002
1,0999999999999996
5,1
2,1999999999999997
-0,8000000000000002
2,1999999999999997
-5,700000000000001
-2,1999999999999997
-0,29999999999999916
-4,6000000000000005
1,3000000000000012
3,3
5,300000000000001
5,4
5,1000000000000005
-19,299999999999997
7,700000000000003
-2,5
0,3
-1,9
-4,3
-8,700000000000003
1,5000000000000004
3,6999999999999997
2,5
7,400000000000002
4,5
-0,6999999999999998
-3,7999999999999994
1,4999999999999996
7,000000000000002
1,9999999999999991
-2,5
-1,1000000000000005
-1,5
3,7999999999999994
1,1999999999999993
1,3000000000000003
6,900000000000002
5,9
6,300000000000001
4,6
12,000000000000004
5,500000000000001
4,8
-3,7999999999999994
0,2
-1,2000000000000002
-1,9
1,3
0,8000000000000002
11,700000000000006
0,2000000000000004
-3,499999999999999
-7,500000000000002
-11,700000000000005
-7,500000000000002
11,000000000000005
4,6
-0,2999999999999994
4,6
-3,7999999999999994
0,7000000000000005
3,3
-1,5
4,1
-1,8000000000000007
10,500000000000005
0,09999999999999953
-3,499999999999999
-3,5999999999999996
12,400000000000004
-14,600000000000009
0,4
-0,2
0,3
-1,1
-4,8
-5
-18,5
-11,500000000000004
-14,300000000000006
-11,900000000000006
-7,500000000000002
-1,3000000000000007
-0,6000000000000002
-0,9000000000000002
1,7000000000000002
3,6999999999999997
-3,7999999999999994
-0,9999999999999999
-0,6000000000000004
-6,4
-1,7000000000000002
-7,8000000000000025
-2,6999999999999993
0,2999999999999998
-5,300000000000001
-13,700000000000008
2,9999999999999996
-4,1
0,2
0,3
0
-3,8999999999999995
-4,7
-10,100000000000005
-6,700000000000001
-5,199999999999999
-10,200000000000005
-3,3
-0,799999999999999
-0,9
-1,7000000000000002
1,1102230246251565E-16
3,3999999999999995
-2,1999999999999997
-6,200000000000001
2,5999999999999996
-7,3000000000000025
-6,100000000000001
-5
1,9
-6,4
-15,80000000000001
-23,399999999999984
-7,900000000000002
-2,9999999999999996
-10,100000000000005
-0,6000000000000001
0,3
-0,6000000000000001
-4,199999999999999
2,8
-11,300000000000006
-2,5
-7,500000000000002
6
1,4432899320127035E-15
-1,7999999999999998
-0,09999999999999998
6,500000000000002
3,3999999999999995
1,4999999999999996
-6,200000000000001
-4,6
2,5999999999999996
-3,9999999999999987
-7,700000000000003
-8,900000000000004
-2,1999999999999997
0,49999999999999956
-5,9
2
9,100000000000003
-15,500000000000007
-7,000000000000002
-0,1
0,1
-0,10000000000000003
-0,7
-1,2000000000000002
-1,7000000000000002
-21,29999999999999
5,000000000000001
-5,800000000000001
-3,3
1,1102230246251565E-16
1,9999999999999991
3,7999999999999994
0,5000000000000002
-0,10000000000000087
-5,499999999999998
-0,39999999999999925
0,9000000000000002
-7,000000000000002
-3,8999999999999995
0,5000000000000002
-2,2999999999999994
-6,300000000000001
3,099999999999999
8,800000000000002
-3,3
-15,200000000000006
-2,9
-0,1
0
-0,30000000000000004
-6,300000000000002
-8,300000000000002
-2,7
4,5
-5
6,100000000000001
3,3999999999999995
3,899999999999999
9,500000000000004
1,4
3,3
-9,900000000000004
-4,199999999999999
3,4000000000000004
-5,9
-5,5
-8,200000000000003
-2,9
4,699999999999999
7,000000000000002
-7,600000000000001
1,3000000000000003
-12,700000000000006
-13,900000000000007
-4,6
-2,3
0,3
0
-5,6000000000000005
-8,500000000000004
1,5
-2,5
0,9000000000000002
2,9
6,4
4,699999999999999
0,5000000000000002
-1,200000000000001
-4,799999999999999
-5,5
0,20000000000000018
-1,0999999999999996
5,9
1,4000000000000008
2,5
-4,1
-4,199999999999999
-2,9999999999999996
-4,399999999999999
-3,3
-4,6
-9,900000000000004
-2,9
-2,1
-0,2
-0,1
-1,1
-9,200000000000003
-5,300000000000001
-0,19999999999999918
2,5
-1,8999999999999995
5,500000000000001
1,6
-0,799999999999999
-0,5999999999999999
0,9000000000000011
-6,700000000000001
-1,4
-2,1999999999999997
-1,4999999999999996
-1,3000000000000003
-2,9
-2,1
0,30000000000000004
-8,100000000000003
3,499999999999999
-0,09999999999999953
-5,300000000000001
-19,4
-1,7999999999999998
0,2
-0,3
-0,3
-0,6000000000000001
-9,300000000000004
-5,9
-6,900000000000002
-1,2
-0,6999999999999996
-0,20000000000000084
0,10000000000000064
-1,9999999999999991
-1,4
0,7000000000000003
4,399999999999999
0,5000000000000004
0,2999999999999998
-2,9999999999999996
-1,3000000000000003
-5,300000000000001
-2,3
-5,700000000000001
7,100000000000001
2,6999999999999993
1,9000000000000004
-10,700000000000005
-2,5
-2,1
-2,1
-0,3
0,1
0
-5
2,800000000000001
7,500000000000002
-5,900000000000001
-4,6
-0,1000000000000002
0,9000000000000007
3
4,9
-0,3000000000000005
2,9999999999999996
1,1000000000000003
6,300000000000002
1,7999999999999994
-3,1
-5,1000000000000005
1,1999999999999993
-0,9999999999999992
-4,1
2,1
-3,5
-17,300000000000004
-3,9999999999999996
-4,9
-1,7999999999999998
0,2
0,2
-0,2
-1,5
-16,300000000000008
-13,500000000000007
-1,1
-0,5999999999999999
-3,5999999999999988
-0,5000000000000002
-2,5999999999999996
5,500000000000001
3,099999999999999
5,4
8,500000000000004
2,1
2,9
-3,8000000000000003
4,9
-2,1999999999999997
2,7
0,30000000000000004
-4,3999999999999995
-7,100000000000001
2,5
-1,7999999999999998
-5,500000000000001
0,1
0,3
0
-0,6000000000000001
-7,3000000000000025
-27,899999999999967
-22,599999999999987
2,9
-6,800000000000001
1,5000000000000004
-7,771561172376096E-16
2,1
-4,399999999999999
0,5
-1,0999999999999996
0,7000000000000001
2,800000000000001
-0,09999999999999953
-1,3999999999999997
-3,199999999999999
4,799999999999999
0,5999999999999994
12,700000000000006
14,300000000000006
-3,5
-17,200000000000003
-2,1999999999999997
-1
-0,1
-0,2
0,2
0,3
-1,7999999999999998
-7,100000000000002
-1,7000000000000002
-13,800000000000008
-2,6999999999999993
-17,100000000000005
-1,3000000000000003
-7,3000000000000025
-6,600000000000001
-3,099999999999999
1,2999999999999998
-2,9
0,8999999999999998
-3,499999999999999
-6,4
4,9
-9,300000000000004
-6,300000000000001
-8,700000000000003
-3,5
0,30000000000000004
-0,9
-0,7000000000000001
-0,5
-0,3
-0,3
0,1
-0,1
0,3
-3,4999999999999996
-8,200000000000003
-9,300000000000004
-17,100000000000005
-8,300000000000002
-12,400000000000006
-15,200000000000008
-11,100000000000005
-6,600000000000001
-17,700000000000003
-12,400000000000006
-21,09999999999999
-16,500000000000007
-17,800000000000004
-18,200000000000003
-11,100000000000005
-14,300000000000008
-10,600000000000005
-5,500000000000001
-0,3
0
0,2
-0,1
-0,3
-0,3
0
0,2
0
0
-0,2
-0,5
-0,8
-0,9
-0,4
-3,3999999999999995
-5,700000000000001
-11,100000000000005
-13,900000000000007
-13,200000000000006
-7,400000000000002
-1,7000000000000002
-5,700000000000001
-5,800000000000001
-5
-1,1
-1,1
-1,2000000000000002
-0,3
0,2
-0,2
-0,1
0,2
0
-0,2
-0,1
-0,2
-0,1
-0,2
0
-0,3
0,1
-0,3
-0,2
0
-0,9
-1,1
-0,3
-0,1
-0,3
0,2
-0,3
0,3
0,2
0,3
-0,3
0,1
0,1
0
0
0
-0,3
0,1
0,1
-0,2
0,3
-0,2
0,3
0,1
-0,2
-0,3
0
-0,5
-1,4
-1,2000000000000002
0
-2,5
-3,0999999999999996
-2,6999999999999997
-0,5
0
-3,9999999999999996
-4,3
-4,3
-4,3
-0,2
-0,1
-0,3
0,1
-0,2
0,2
0
0,2
0,1
0,3
-0,3
-0,9
-1,3
0,3
-0,7000000000000001
-2,6999999999999997
-3,8999999999999995
-3,1999999999999997
-2,1999999999999997
-1,9
-7,8000000000000025
-12,300000000000006
-9,000000000000004
-6,500000000000002
-4,9
-4,199999999999999
-3,6999999999999997
-4,3
-0,2
-0,3
-0,3
0,3
0,1
0,1
-0,3
-1,2000000000000002
-0,3
-0,1
0
-1,6
-2
-5,800000000000001
-5,900000000000001
-5,800000000000001
-8,500000000000004
-11,600000000000005
-10,800000000000004
-9,400000000000004
-9,500000000000004
-4,6
-0,5000000000000002
-2,5
-5,700000000000001
-4,9
-3,7999999999999994
-3,9999999999999996
0
0,2
-0,2
0,3
0,2
-0,1
0,1
-1,1
-0,10000000000000003
-1
-0,5
-9,800000000000004
-8,600000000000003
-15,500000000000009
-0,7000000000000001
-6,200000000000001
-11,500000000000005
-11,400000000000006
-11,600000000000005
-6,4
-20,89999999999999
-9,500000000000004
-9,300000000000004
-15,40000000000001
-8,700000000000003
-13,400000000000007
-18,3
-6,500000000000002
-1,1
-0,3
0,3
0,1
0,3
0,1
0,3
-3,6999999999999997
-5,500000000000001
-9,200000000000003
-9,100000000000003
-6,600000000000001
-8,700000000000003
-6,300000000000002
3,4000000000000004
-0,1999999999999994
5,000000000000001
-3,7999999999999994
-4,5
-5,700000000000001
-9,800000000000004
-5,199999999999999
-8,100000000000003
-6,700000000000001
-0,8000000000000002
-0,5999999999999999
-9,100000000000003
-22,899999999999984
-12,200000000000006
-2,9
-2,5
0,1
-0,1
-3,7999999999999994
-4,3
-4,6
-10,200000000000005
-18,7
-12,100000000000007
-10,200000000000005
-2,3000000000000003
-6,300000000000001
-0,6000000000000009
-0,40000000000000013
2,6000000000000005
1,8999999999999995
8,400000000000002
6,300000000000001
4,299999999999999
2,9999999999999996
-0,7000000000000005
3,899999999999999
-3,7999999999999994
-1,1000000000000005
-7,500000000000002
-9,500000000000004
-13,000000000000007
-2,9999999999999996
-11,400000000000006
-3,4999999999999996
-0,3
-4,7
-4,3999999999999995
-8,600000000000003
-13,500000000000007
-13,700000000000008
-11,800000000000006
-4,6
-4,1
-1,1999999999999993
-2,9
-3,1
1,9000000000000004
2,5
1,8999999999999995
14,500000000000007
13,000000000000007
4,299999999999999
0,2999999999999998
-1,4999999999999996
-5,800000000000001
-5,1
-10,400000000000004
-2,1
-4,6
-11,200000000000005
-12,400000000000006
-4,5
-3,3999999999999995
-5,700000000000001
-2,6999999999999997
-8,500000000000004
-6,900000000000002
-0,19999999999999918
-1,7999999999999998
-3,6999999999999997
-2,6999999999999993
-2,7
-6
-2,9999999999999996
0,5000000000000002
2,6999999999999993
3,899999999999999
5,1
1,5
-0,2999999999999998
-2,7
0,10000000000000042
0,20000000000000018
0,1000000000000002
-0,9999999999999999
-7,8000000000000025
-13,300000000000008
-7,400000000000002
-9,700000000000005
-1,3
0,1
-1,9
-4,1
-12,300000000000006
-3,9999999999999996
10,000000000000004
-5,700000000000001
-9,500000000000004
-2,9
-2,6999999999999997
1,4
-3,899999999999999
-3,6999999999999997
-4,1
0,7999999999999993
-5,800000000000002
-2,5
0,20000000000000084
-1,6
-3,6999999999999997
-0,9999999999999999
-2,3000000000000003
6,500000000000002
-5,800000000000001
-14,400000000000006
-9,800000000000004
-7,900000000000003
-3,3999999999999995
0,2
-1,7999999999999998
-4,8
1,4000000000000004
-2,9
-1,7000000000000002
1,5000000000000004
0,3999999999999999
-0,2999999999999998
0,9999999999999999
5,4
7,3000000000000025
1,5
-3,3
-3,099999999999999
1,0000000000000009
-4,199999999999999
-5,300000000000001
1,4000000000000004
-2,1999999999999997
1,6
-2
-5,4
1,3000000000000003
-9,100000000000003
-12,400000000000006
-10,800000000000004
-3,3
0
-7,000000000000002
-1,7999999999999998
-9,100000000000003
-7,3000000000000025
1,7999999999999998
-3,4000000000000004
4,5
0,9000000000000002
0,2999999999999998
0,2999999999999998
7,200000000000001
-0,40000000000000013
-4,9
-5,800000000000001
-5,5
-3,1
-2,4999999999999996
4,5
2,2999999999999994
4,399999999999999
0,5999999999999999
10,700000000000005
-1,5000000000000004
-2,3000000000000003
-16,10000000000001
-11,100000000000005
-3,3
-1,7000000000000002
-11,700000000000006
-9,100000000000003
3,0000000000000004
6,700000000000001
4,299999999999999
3,3
3,7999999999999994
5,700000000000001
4,9
4,5
-1,2000000000000002
0,5000000000000002
-2,9
7,400000000000002
-1,2999999999999998
-0,7000000000000001
2,1
5,700000000000001
0,9000000000000002
5,4
2,9
-0,3000000000000005
7,400000000000002
-9,700000000000005
-17,900000000000002
-7,200000000000002
0,1
-0,1
-8,300000000000002
-8,300000000000002
-9,600000000000003
12,500000000000007
1,1000000000000005
4,5
0,8999999999999996
5,5
3,199999999999999
-1,0000000000000009
1,8000000000000007
1,1000000000000005
4,299999999999999
6
3,3
2,0999999999999996
-5,1
0,5999999999999999
1,2000000000000002
8,500000000000004
-0,5000000000000002
5,1
-8,100000000000003
-15,000000000000009
-13,900000000000007
-3,0999999999999996
-0,2
-2,5
-0,9
-6,500000000000002
-7,500000000000002
1,5
7,500000000000002
-1,9999999999999991
6
2,9000000000000004
5,800000000000001
1,0999999999999996
-1,5000000000000004
5,4
2,799999999999999
5,300000000000001
7,771561172376096E-16
1,6
1,2000000000000002
4,1
3,399999999999999
-2,1999999999999997
7,3000000000000025
1,7000000000000002
-4,6
-14,900000000000007
-8,500000000000004
-0,9000000000000002
-0,1
-2,5999999999999996
-0,3
-8,500000000000004
-3,9
4,3
-5,700000000000001
2,6999999999999993
-1,1000000000000005
1,4
3,199999999999999
1,7999999999999998
8,000000000000002
-0,10000000000000109
-0,3000000000000005
-0,2999999999999996
-2,799999999999999
-0,5999999999999999
-0,8000000000000002
-0,3000000000000005
-8,300000000000002
-0,1000000000000002
-5,199999999999999
-10,400000000000004
-0,7000000000000005
-18,1
-8,200000000000003
-2,6999999999999997
-0,5
0,2
0,1
-6,600000000000001
10,100000000000005
0,7000000000000001
-9,000000000000004
-5,300000000000001
2,7
0,5999999999999992
2,6999999999999997
3,9
5,9
1,4
-2,6999999999999993
-3,6999999999999997
-0,1000000000000002
2,7
3,8000000000000003
1,2000000000000002
1,4
-2,2999999999999994
2,1
-6,700000000000002
-2,1999999999999997
-6,600000000000001
-6,200000000000001
-0,7000000000000001
-5
0
0,2
-3,4999999999999996
-5,1000000000000005
5,1000000000000005
-6,100000000000001
-6,900000000000002
6,100000000000001
-2,1999999999999997
0,20000000000000062
5,300000000000001
1,7999999999999998
-3,5
-1,9000000000000004
-5
-2,5
-1,8000000000000007
-4,199999999999999
3,1
-2,2999999999999994
0,8999999999999998
-6,800000000000001
1,0000000000000004
-7,8000000000000025
-12,900000000000007
-12,200000000000006
-2,9
-5,1000000000000005
1,1
-0,1
-3,7999999999999994
-14,400000000000007
-7,900000000000002
1,3000000000000003
4,3
0,9000000000000002
1,7000000000000002
2,1
3,3
1,4999999999999996
0,7000000000000001
-1,7999999999999998
0,5999999999999999
0,5999999999999994
2,0999999999999996
-0,5999999999999999
1,200000000000001
-0,9000000000000002
3,1
-5,9
-9,100000000000003
2,4
-14,100000000000009
-15,30000000000001
-1,1
-0,7
0
-6,400000000000001
-6,100000000000001
-19,499999999999996
-3,899999999999999
-5,1
1,7000000000000002
-2,5999999999999996
-0,09999999999999953
-5,199999999999999
-1,0999999999999999
-5,5
-5,1000000000000005
2,0999999999999996
-4,199999999999999
2,0999999999999996
3,3
1,7000000000000006
0,2999999999999998
-9,700000000000005
0,19999999999999984
-6,300000000000001
2,5
-13,100000000000007
-2,5
-7,3000000000000025
-0,9
-0,1
0,2
-3,3
-1,5
-7,400000000000002
-1,7000000000000002
3,0999999999999996
-6,4
-1,4
-6,100000000000001
-12,700000000000006
-11,500000000000005
-5,9
-2,5999999999999996
-5,700000000000001
-5
-1,4999999999999996
